{"format":"mlp_v1","dtype":"float32","dims":{"in":784,"h1":128,"h2":64,"out":10},"layers":[{"W_shape":[784,128],"W":[-0.016998236998915672,-0.02437971718609333,-0.015848105773329735,-0.0029059366788715124,-0.012785675935447216,0.0013137728674337268,-0.01700407639145851,0.03400609269738197,0.01662961021065712,-0.027480412274599075,-0.008123209699988365,0.009178655222058296,-0.026781577616930008,0.03453918546438217,-0.004055366385728121,0.020682739093899727,0.02100846916437149,-0.009909887798130512,-0.00599257554858923,0.006018437910825014,0.018583698198199272,-0.022299399599432945,-0.015130918473005295,0.012158489786088467,-2.5124187231995165e-05,-0.022959379479289055,-0.006204192526638508,-0.021486055105924606,0.002264243084937334,0.02374076470732689,-0.022482074797153473,0.03266851603984833,-0.005327523685991764,0.00028621708042919636,0.0007479247869923711,-0.03458632528781891,0.01654929108917713,0.03523607552051544,-0.024080175906419754,-0.026668943464756012,-0.00894041545689106,0.013801388442516327,-0.035507068037986755,-0.009340781718492508,-0.031522903591394424,0.02066686376929283,-0.010730770416557789,0.014465980231761932,-0.0006264944677241147,0.03377659618854523,0.023997705429792404,0.007874094881117344,0.00460849842056632,0.0355277955532074,-0.01751970499753952,-0.03468729555606842,-0.029353924095630646,0.03135589882731438,0.033818528056144714,-0.0006084621418267488,-0.011361716315150261,0.01591840200126171,-0.03493594378232956,0.01856808364391327,0.012243055738508701,-0.022111034020781517,0.011890332214534283,0.029365886002779007,-0.024134470149874687,0.029327021911740303,-0.012545864097774029,0.01430702954530716,-0.01675354689359665,0.0013541893567889929,-0.023038001731038094,-0.002296716207638383,-0.003645391436293721,-0.007423955947160721,0.02085181698203087,-0.00047155393986031413,0.015996279194951057,0.020930215716362,-0.010605421848595142,0.029260966926813126,0.015206250362098217,0.02837483026087284,-0.00569940498098731,-0.0023202786687761545,0.028851943090558052,0.009539186023175716,0.002344961743801832,-0.018749231472611427,0.03189313784241676,0.004245008807629347,0.018382251262664795,-0.018846485763788223,-0.005017233546823263,-0.007563314400613308,0.0007649568724445999,-0.026756929233670235,0.0131180789321661,-0.0337364487349987,-0.01901121996343136,0.016888713464140892,0.03101498633623123,0.00811456423252821,-0.006608697585761547,0.025279734283685684,0.0352022722363472,-0.014616413973271847,-0.007845178246498108,0.01421119924634695,-0.010212894529104233,-0.03343392163515091,-0.01077560056000948,-0.0010886536911129951,-0.03226892277598381,0.029644671827554703,0.01611190102994442,0.019461533054709435,-0.028825001791119576,-0.033055007457733154,-0.017156241461634636,-0.026749446988105774,-0.018703607842326164,0.01301240548491478,-0.0013415263965725899,0.031179171055555344,0.005814187694340944,-0.022420896217226982,-0.022362271323800087,-0.011531883850693703,-0.004802338313311338,-0.030230693519115448,0.009714906103909016,-0.03154217451810837,0.015977131202816963,0.011435856111347675,-0.03508438915014267,0.018798669800162315,-0.011526287533342838,0.019729483872652054,-0.011728824116289616,0.0057530091144144535,-0.023430218920111656,0.024729834869503975,-0.016364071518182755,0.017474230378866196,0.0045299772173166275,0.028577705845236778,0.0034515773877501488,-0.03391847386956215,-0.02995430864393711,0.03253992646932602,-0.0031406038906425238,-0.025189485400915146,0.01249721460044384,0.008833333849906921,0.0035861581563949585,0.028982168063521385,0.028451351448893547,-0.016971252858638763,0.015654057264328003,-0.0010609648888930678,-0.01565108262002468,-0.03155146911740303,-0.02106725051999092,0.010002790950238705,-0.015287547372281551,-0.004104406572878361,-0.011003880761563778,-1.8778144294628873e-05,0.011076581664383411,0.032101064920425415,-0.0333518385887146,0.004024215508252382,0.010057155042886734,-0.024397071450948715,0.01617482863366604,-0.008677136152982712,0.0008252297411672771,0.005588647443801165,0.024662911891937256,0.014416361227631569,0.009227834641933441,-0.03204692527651787,-0.03243500366806984,0.0020725030917674303,0.02021734230220318,0.01450556144118309,-0.021670080721378326,-0.01630396954715252,-0.020339256152510643,-0.006546647287905216,0.011091145686805248,-0.016405723989009857,-0.015682527795433998,0.020126421004533768,0.025151174515485764,0.0033882998395711184,0.01600816659629345,-0.004773731343448162,0.022895263507962227,0.023166395723819733,-0.03453275188803673,0.016645729541778564,0.015517358668148518,0.015661241486668587,0.020433802157640457,0.031227970495820045,0.011297357268631458,-0.022321579977869987,0.013443240895867348,0.035027939826250076,0.02959788218140602,0.026077287271618843,-0.03237834945321083,-0.03515435755252838,0.017821907997131348,0.016681423410773277,0.014883583411574364,-0.024494100362062454,-0.027246704325079918,-0.024257002398371696,0.023083772510290146,-0.006877285894006491,-0.02291923575103283,0.009389732964336872,-0.032991282641887665,-0.028992632403969765,-0.02773657813668251,0.013532345183193684,0.008376136422157288,0.005271630361676216,0.023293523117899895,0.017484130337834358,-0.019524913281202316,-0.029436524957418442,6.685532571282238e-05,-0.013307728804647923,-0.01657332479953766,0.0006744229467585683,0.014402046799659729,0.029084568843245506,-0.00330049148760736,0.002372041577473283,0.02205822803080082,-0.007912487722933292,0.017355842515826225,0.03463646024465561,-0.020661260932683945,0.005601069424301386,0.015765542164444923,-0.026174047961831093,0.022357771173119545,0.016936834901571274,0.017457017675042152,0.024538567289710045,0.017839932814240456,0.01722242683172226,0.010136104188859463,0.009980284608900547,0.02341802418231964,0.02385939098894596,-0.019893502816557884,0.011583969928324223,-0.02291286177933216,0.022967638447880745,-0.033440690487623215,-0.03326811641454697,-0.034326452761888504,0.010398603044450283,0.0022611082531511784,-0.03374562785029411,-0.033825527876615524,0.017691582441329956,0.017764011397957802,-0.01918419823050499,0.020323431119322777,0.02458842098712921,0.0236052256077528,0.0039359224028885365,0.01370029803365469,0.019434265792369843,0.017053168267011642,-0.006637910380959511,0.012238162569701672,0.014066207222640514,0.022504553198814392,-0.01076222863048315,0.0016947602853178978,-0.022014496847987175,-0.0176825113594532,0.0029615990351885557,-0.014178664423525333,0.010358811356127262,-0.03222128748893738,-0.02790157124400139,0.018405519425868988,-0.004081950057297945,0.03355029225349426,-0.02696177549660206,-0.010155455209314823,0.030249694362282753,0.023991068825125694,0.03415460139513016,-0.021747097373008728,-0.010045870207250118,0.010373623110353947,-0.015923533588647842,-0.03236547112464905,0.0058258590288460255,-0.022310806438326836,0.02066655084490776,-0.008546452037990093,-0.012395543046295643,0.010807381942868233,0.008912915363907814,-0.013458874076604843,0.017709005624055862,-0.006914967205375433,0.018926089629530907,-0.03255586326122284,0.029274841770529747,0.010454513132572174,-0.0033834432251751423,-0.034139636904001236,-0.020798593759536743,0.008092226460576057,0.030575431883335114,0.00744635472074151,0.0043888152576982975,-0.006119711324572563,0.023990968242287636,0.005805232562124729,0.0174727626144886,-0.018160071223974228,-0.027542205527424812,0.03498413413763046,-0.033386845141649246,-0.01989406906068325,-0.006051241420209408,-0.018623637035489082,-0.016750995069742203,0.003982931841164827,0.007853670977056026,0.007625298574566841,0.018675513565540314,-0.020337093621492386,0.02811228111386299,0.01145519595593214,-0.03248278796672821,0.006920274812728167,-0.00875850673764944,-0.011121263727545738,-0.0215170755982399,0.015387085266411304,0.03409266844391823,-0.015867406502366066,0.011106722988188267,-0.0044830478727817535,-0.0047756098210811615,-0.028161033987998962,-0.01774996519088745,0.026297548785805702,-0.02743755467236042,-0.01310296542942524,0.015348621644079685,-0.008611681871116161,-0.01639612764120102,0.03192168101668358,0.02928639017045498,0.007876316085457802,0.03544044494628906,0.034757111221551895,0.02699682116508484,0.0001054171152645722,0.02226090431213379,0.021135911345481873,-0.023029586300253868,0.007672314066439867,-0.028722986578941345,-0.01936992257833481,-0.025482719764113426,-0.01360234059393406,-0.0033263005316257477,-0.014544188044965267,0.004250610712915659,0.0265562292188406,-0.02092304639518261,-0.031599946320056915,0.029146963730454445,-0.011417381465435028,0.02437499165534973,0.030881060287356377,0.022107688710093498,-0.031231701374053955,-0.00693940045312047,-0.017374414950609207,0.010292459279298782,0.0051987976767122746,0.030398128554224968,-0.007580101490020752,0.024117276072502136,0.013011060655117035,-0.011877492070198059,-0.01542415376752615,0.014657650142908096,0.00509325135499239,0.033665597438812256,-0.020018870010972023,-0.018859192728996277,0.013838532380759716,0.011531414464116096,0.02999035269021988,0.03014111891388893,-0.01763196848332882,0.0026763766072690487,-0.007461993955075741,-0.02917315438389778,-0.016207683831453323,-0.029575573280453682,0.034022603183984756,0.028561212122440338,0.02384314313530922,0.03424403816461563,0.006959183141589165,0.012845685705542564,-0.019883520901203156,0.030431542545557022,-0.032962724566459656,0.009437993168830872,-0.03287813812494278,0.03381180390715599,0.026828570291399956,0.0002668806700967252,0.006383867468684912,-0.01565532386302948,-0.02477748692035675,0.023523256182670593,-0.02633287012577057,-0.026270486414432526,-0.011122788302600384,0.03486841917037964,-0.0011940152617171407,-0.013748764991760254,-0.01785137876868248,0.02010822296142578,-0.02527172863483429,-0.004396509844809771,0.026290960609912872,-0.03472071886062622,0.018388057127594948,0.034214314073324203,-0.01906726509332657,0.017190324142575264,0.02144971489906311,0.02651572972536087,0.014003384858369827,-0.019927142187952995,-0.029903089627623558,0.004224357660859823,0.00424308143556118,-0.007167493458837271,0.003283626167103648,-0.023831050843000412,-0.023329660296440125,0.015341673046350479,0.03548501431941986,0.021498575806617737,-0.023849595338106155,0.019566064700484276,-0.014970308169722557,0.030535241588950157,-0.0019267821917310357,-0.0072841523215174675,-0.028603611513972282,0.00036009872565045953,-0.029425233602523804,0.013195984996855259,-0.025878500193357468,-0.0021382325794547796,-0.01803465001285076,0.03567839786410332,-0.01625090278685093,0.006083305459469557,-0.0346853993833065,0.007935703732073307,0.0007805549539625645,-0.0012286101700738072,-0.0069397250190377235,0.02779277414083481,-0.02262110449373722,0.013827946037054062,0.019829319790005684,0.016740450635552406,0.007639450952410698,0.01431462075561285,-0.01851830445230007,-0.02963363006711006,0.02931235358119011,0.0025453607086092234,-0.01848103478550911,0.024541331455111504,0.02257726900279522,-0.018678534775972366,0.026580145582556725,-0.012400452047586441,-0.008421754464507103,-0.006788036786019802,0.0004401443584356457,-0.018537458032369614,-0.0018673590384423733,-0.017017493024468422,-0.007775302976369858,0.027692880481481552,-0.011212237179279327,-0.025498205795884132,0.01611386053264141,-0.015171787701547146,0.01952526718378067,0.03549591079354286,0.004147055558860302,-0.023380625993013382,-0.0046393959783017635,-0.006292055826634169,-0.03462226316332817,-0.030215056613087654,0.01344586256891489,0.00354761746712029,0.03088967315852642,0.006767140701413155,0.013575471006333828,0.002712409943342209,0.0055694873444736,-0.03294777497649193,-0.017488420009613037,0.007867253385484219,-0.03060636855661869,-0.003321537049487233,0.017289863899350166,-0.03368370234966278,0.027053678408265114,0.017135577276349068,0.00918842013925314,-0.014893300831317902,-0.010328811593353748,-0.025575609877705574,-0.0174038615077734,0.0124290082603693,-0.03379744291305542,0.031026016920804977,-0.02974793314933777,-0.03376520425081253,-0.025314107537269592,0.02690279483795166,-0.021992335096001625,-0.01634458266198635,-0.004135987255722284,-0.03108765371143818,0.020709583535790443,-0.013584679923951626,0.021095553413033485,-0.008440972305834293,-0.030667679384350777,0.023042621091008186,0.01224871538579464,0.0017550979973748326,-0.018505414947867393,0.03188808634877205,-0.0013185396092012525,0.029836148023605347,0.021023767068982124,0.012682000175118446,0.0012310214806348085,0.034259598702192307,-0.03144971653819084,0.026460474357008934,-0.03232932090759277,-0.00739125395193696,0.005105902906507254,-0.0010238006943836808,-0.005098402500152588,-0.00441679498180747,-0.027740824967622757,-0.02576771192252636,-0.014134034514427185,0.02799583226442337,0.02002752013504505,-0.02029258944094181,-0.02909766137599945,0.0013712159125134349,-0.02300962246954441,-0.013662480749189854,-0.023714475333690643,-0.010922135785222054,0.007852314971387386,0.0339224599301815,0.011910036206245422,-0.00655893050134182,-0.010827695950865746,-0.009841330349445343,0.0286402627825737,-0.011421781964600086,-0.03116471879184246,7.396308501483873e-05,-0.029538091272115707,-0.029848773032426834,0.033047329634428024,-0.0029951962642371655,0.0314674898982048,0.01704375445842743,0.010053380392491817,-0.002886892529204488,-0.030109811574220657,0.015272222459316254,-0.014185484498739243,0.01960408315062523,-0.013788452371954918,-0.00045020232209935784,0.009327697567641735,-0.023487990722060204,0.009104457683861256,-0.02772683836519718,-0.010381440632045269,-0.007047141902148724,-0.018729060888290405,0.03451532870531082,-0.031326740980148315,0.02779279090464115,0.009619415737688541,0.03289177641272545,0.005872194189578295,0.015053469687700272,0.025431707501411438,0.021595532074570656,-0.021711619570851326,0.001374057843349874,-0.011795577593147755,0.03138646110892296,0.010363929904997349,0.0013443130301311612,0.01162928156554699,-0.026666374877095222,0.024946486577391624,-0.013512966223061085,-0.029664991423487663,-0.015739424154162407,0.009019858203828335,-0.016947034746408463,-0.030474314466118813,0.03334006667137146,0.012479371391236782,-0.024881066754460335,0.01046659704297781,-0.027471039444208145,-0.023963898420333862,-0.027288584038615227,-0.006335160229355097,0.0337865948677063,-0.026046646758913994,-0.026576485484838486,-0.023793181404471397,0.009563697502017021,0.013415969908237457,0.0084124356508255,-0.03382335603237152,0.006298268213868141,-0.03253714740276337,0.009786821901798248,-0.011247137561440468,0.032954905182123184,0.026889650151133537,0.01822282373905182,0.023513300344347954,0.0017838311614468694,-0.0068669612519443035,-0.028055962175130844,-0.0001473246666137129,-0.022752486169338226,0.020300287753343582,-0.025132035836577415,-0.02695574052631855,0.024697769433259964,0.03136338293552399,-0.0035933947656303644,-0.025067700073122978,0.0034481182228773832,-0.02485419623553753,-0.013874693773686886,0.030945010483264923,-0.030823057517409325,-0.03222593292593956,-0.02782304398715496,-0.002671541878953576,-0.020867004990577698,0.029096420854330063,-0.010405895300209522,-0.007867066189646721,-0.013734010979533195,0.005919532384723425,0.02673824317753315,-0.024974806234240532,0.01540572103112936,0.018841343000531197,0.01701640710234642,-0.024151502177119255,0.004707689862698317,0.006552139762789011,-0.03204609453678131,-0.0007872768328525126,0.017887648195028305,-0.03262786194682121,0.006336599122732878,0.007498788181692362,-0.02062927559018135,-0.03047098219394684,0.0104425810277462,0.020317818969488144,0.005376019980758429,-0.018516112118959427,-0.02282833866775036,-0.025534173473715782,4.069393253303133e-05,-0.02755848318338394,-0.031239496544003487,-0.027026783674955368,-0.029398728162050247,0.011497133411467075,-0.006537991110235453,0.010495398193597794,-0.009924441576004028,0.015271283686161041,-0.00021465474856086075,0.02079535461962223,0.03274783492088318,-0.019392838701605797,-0.019653594121336937,0.0026413328014314175,-0.012628015130758286,0.0189914982765913,0.022737139835953712,-0.002472862834110856,-0.03232735022902489,0.027124764397740364,0.02782529965043068,0.03187258169054985,0.022207649424672127,0.02851690538227558,0.03215232491493225,0.02695631980895996,0.03286782279610634,-0.003782368265092373,0.02429513819515705,-0.017627641558647156,0.01968584768474102,0.03030219115316868,-0.01049797236919403,-0.013636034913361073,0.016672147437930107,0.019315315410494804,-0.002347005298361182,0.008239490911364555,0.012451455928385258,-0.03508109226822853,-0.009347129613161087,-0.017419055104255676,0.02451101876795292,-0.01995369978249073,0.03439818322658539,0.03543077036738396,0.00737888365983963,-0.02241593599319458,0.0023667532950639725,0.03498552367091179,-0.010106120258569717,-0.023239772766828537,0.025655800476670265,0.022255869582295418,-0.0356549397110939,-0.008173626847565174,0.020109806209802628,-0.003011967521160841,0.0134965218603611,0.02551543153822422,0.00875987857580185,0.018879679962992668,0.009494206868112087,-0.03303683176636696,-0.01841423101723194,0.014445740729570389,-0.02863321453332901,0.021160658448934555,-0.023149069398641586,-0.034704118967056274,0.0009494568221271038,0.002013162476941943,-0.0014157744590193033,-0.017890729010105133,-0.02631240524351597,-0.00436909357085824,-0.02398042194545269,-0.03521965816617012,0.02964802272617817,-0.006075081415474415,0.029068317264318466,0.005265110172331333,-0.009962716139853,0.008219760842621326,0.02694176323711872,-0.02299889363348484,-0.01807715930044651,-0.0018472559750080109,-0.019799796864390373,-0.00024041991855483502,-0.006299053784459829,-0.011759673245251179,-0.008113578893244267,0.03536488488316536,-0.00019387192151043564,-0.032524608075618744,0.03559137135744095,0.02232460491359234,-0.01259060949087143,-0.005493346136063337,0.017025811597704887,-0.011092940345406532,-0.005441047716885805,-0.010701900348067284,-0.002867358736693859,0.00219973037019372,0.03198651596903801,-0.01547321118414402,0.017829088494181633,-0.024374710395932198,-0.026324503123760223,-0.005395988468080759,0.023779740557074547,-0.013004288077354431,0.026219435036182404,-0.021366184577345848,-0.011879745870828629,0.006081999279558659,0.017429638653993607,0.012318894267082214,-0.01753367856144905,0.016244910657405853,-0.014688486233353615,-0.01951773278415203,-0.028630713000893593,-0.010444018989801407,0.02648448385298252,0.02099892497062683,-0.022599976509809494,-0.016748987138271332,0.014370706863701344,0.034403249621391296,0.006589028052985668,-0.015028155408799648,-0.03352651372551918,-0.0020571136847138405,-0.03066573105752468,-0.02539430372416973,0.023797200992703438,0.027103206142783165,0.013432931154966354,-0.0348280593752861,-0.012606007978320122,0.029716135933995247,0.034774258732795715,0.011162941344082355,0.02116749808192253,0.004259076435118914,-0.003179160412400961,-0.007080253213644028,0.009774809703230858,-0.03204170987010002,0.007070571184158325,0.0198819637298584,-0.024868007749319077,-0.011268521659076214,-0.029832202941179276,-0.030900049954652786,-0.019074581563472748,-0.03377758711576462,0.02270275168120861,0.012655328027904034,0.011585269123315811,0.033356934785842896,-0.002052121562883258,0.011227564886212349,0.01900154910981655,-0.02651343122124672,0.013344920240342617,0.01672675833106041,0.002842350397258997,0.02903037704527378,-0.0014966067392379045,0.025001285597682,0.024621883407235146,0.024977028369903564,0.029424091801047325,0.01641140691936016,0.02468389831483364,-0.009071862325072289,-0.004092623945325613,0.017930850386619568,-0.013991880230605602,-0.007432689890265465,-0.020564112812280655,-0.006120077334344387,-0.014970023185014725,0.003918622154742479,-0.007038516458123922,-0.026487719267606735,-0.034597791731357574,0.025952862575650215,-0.017877519130706787,-0.003804655745625496,-0.01323019154369831,-0.027789635583758354,0.03335834667086601,-0.0009876288240775466,0.020356500521302223,-0.014804779551923275,-0.01480079349130392,-0.02479236200451851,-0.014288059435784817,-0.025404253974556923,0.03357845917344093,0.025121673941612244,-0.00898169819265604,0.021936234086751938,0.027626536786556244,-0.03550838306546211,5.19156783411745e-05,-0.03207976371049881,-0.0034473580308258533,0.022164354100823402,0.014928017742931843,0.013015949167311192,0.013806745409965515,0.021649951115250587,0.01776575855910778,-0.002102166647091508,0.01905643381178379,-0.011693824082612991,-0.02755909413099289,0.001615170855075121,0.016199201345443726,0.024559125304222107,-0.03536111116409302,-0.03422115370631218,-0.005090398248285055,-0.019155506044626236,-0.010316763073205948,-0.02904576249420643,0.016014408320188522,-0.02741500362753868,0.0014757177559658885,0.033541642129421234,0.025727713480591774,-0.02933863177895546,-0.030945930629968643,0.0055459532886743546,-0.0008284307550638914,-0.014888418838381767,-0.008067878894507885,0.029523110017180443,-0.02203327603638172,0.026555059477686882,0.03150935843586922,0.028952529653906822,-0.009711301885545254,-0.010333886370062828,0.030528303235769272,0.03001752868294716,-0.011343343183398247,-0.02432791329920292,0.012784643098711967,-0.004652532748878002,0.002350130118429661,0.011084696277976036,0.03201574087142944,-0.0017108505126088858,-0.0053229499608278275,-0.01765798218548298,-0.002448193496093154,0.00469956686720252,0.0009947600774466991,-0.02625880390405655,0.02712816186249256,-0.012192711234092712,-0.03559849038720131,-0.00718274898827076,-0.030434126034379005,-0.03275660052895546,-0.005962895229458809,0.017733503133058548,0.021570580080151558,0.008779352530837059,-0.02167406491935253,-0.010121406055986881,0.006935453042387962,0.032647427171468735,0.023264871910214424,0.030088691040873528,-0.0014501254772767425,-0.023352771997451782,-0.03555171191692352,-0.007359894458204508,0.004031402058899403,0.023263879120349884,-0.03437869995832443,0.020473752170801163,-0.011855303309857845,0.014367465861141682,0.005742343608289957,0.035588037222623825,-0.010952330194413662,0.019395386800169945,-0.020374391227960587,0.021349377930164337,-0.0008222541073337197,-0.016705021262168884,-0.029945723712444305,0.028585191816091537,0.020498625934123993,0.0276173148304224,-0.020493080839514732,-1.7037784346030094e-05,-0.031468965113162994,-0.026286078616976738,0.02995241992175579,0.008215710520744324,0.0016575638437643647,-0.01824040152132511,0.010000796057283878,-0.030246365815401077,-0.004737816285341978,-0.019946008920669556,0.009453855454921722,0.003845866536721587,0.03447483107447624,0.0024691838771104813,0.022667760029435158,0.024692406877875328,0.024710386991500854,0.006526092998683453,0.02316088229417801,0.015437035821378231,0.010130267590284348,0.015520473942160606,-0.01922922022640705,0.03463573008775711,-0.01858121156692505,0.018116403371095657,0.0246930830180645,0.006628479342907667,0.011017344892024994,0.015433778055012226,0.004989181645214558,0.0239690113812685,0.034455519169569016,0.01683996245265007,-0.006633566226810217,0.008761669509112835,-0.03315335512161255,0.003999622538685799,-0.001087813638150692,-0.030789295211434364,-0.018735768273472786,-0.013086472637951374,0.021017959341406822,-0.033892806619405746,0.03179445490241051,0.013133945874869823,-0.015086876228451729,-0.026401028037071228,0.006740116979926825,0.01723708212375641,0.006034922786056995,-0.028237558901309967,0.03467933088541031,0.0027240656781941652,-0.015629854053258896,0.00836595706641674,-0.031218769028782845,-0.03337953984737396,0.02171880379319191,-0.016992900520563126,0.03200387582182884,-0.03107023611664772,-0.0026632854714989662,-0.017168259248137474,0.009830793365836143,0.005733074154704809,-0.007733563892543316,0.0017026109853759408,-0.024738486856222153,-0.018678274005651474,0.02609594725072384,0.02582079917192459,0.034800294786691666,-0.004445848520845175,-0.031052259728312492,-0.012517014518380165,-0.029581734910607338,0.02009306102991104,0.023237932473421097,-0.03352668881416321,0.011732225306332111,0.014443126507103443,-0.01865168660879135,-0.0043154447339475155,0.03559171408414841,0.026836441829800606,0.012620153836905956,0.00967486947774887,0.024592967703938484,-0.00947459228336811,-0.006440089084208012,0.03180373087525368,-0.002916236873716116,-0.011655432172119617,0.012312416918575764,-0.004244748502969742,0.018087634816765785,-0.007785134483128786,0.007520958315581083,-0.022134175524115562,-0.026312116533517838,0.027423394843935966,0.03518218547105789,-0.017836591228842735,-0.013272884301841259,-0.01419549249112606,0.013088165782392025,-0.023953359574079514,0.015614857897162437,0.007234116084873676,-0.028463246300816536,0.007181369233876467,0.01917892135679722,-0.031424663960933685,-0.030811520293354988,0.0354917086660862,0.012331011705100536,-0.033132798969745636,-0.003865461563691497,0.0032294332049787045,-0.005669782869517803,0.008963647298514843,0.022938160225749016,-0.007501012180000544,-0.017874009907245636,0.0013029613764956594,-0.03523608669638634,-0.021079115569591522,0.011426500044763088,-0.015208316035568714,-0.015947800129652023,0.005188965238630772,-0.0047187223099172115,-0.02541942149400711,0.03535635396838188,0.033470943570137024,-0.002029832685366273,0.017159827053546906,0.011574329808354378,0.015384916216135025,0.001229757210239768,-0.018087642267346382,0.00023435264301951975,0.03253037855029106,0.015113167464733124,-0.03512628376483917,-0.0064929211512207985,-0.004626883659511805,0.026934698224067688,-0.0051117041148245335,-0.012708169408142567,0.019352292641997337,0.029946867376565933,-0.02484631910920143,0.035533562302589417,0.030215663835406303,-0.011984161101281643,0.0006688699359074235,-0.02656187303364277,0.029997754842042923,-0.005438636057078838,-0.01928858831524849,-0.020706595852971077,0.005346281919628382,0.02699347399175167,-0.008795544505119324,0.009370543994009495,0.024906914681196213,-0.034068770706653595,0.021229075267910957,0.02503238432109356,-0.017018543556332588,-0.020030751824378967,0.005761451553553343,0.006148889195173979,-0.021393651142716408,-0.002438954310491681,0.0038633057847619057,-0.02269880287349224,-0.012579835020005703,0.007600776851177216,-0.023338451981544495,-0.004117921460419893,-0.0038857331965118647,0.02995017170906067,0.01587417721748352,0.013053609989583492,-0.017512565478682518,0.012996089644730091,-0.03506005182862282,-0.005607114173471928,0.03412289917469025,-0.012295746244490147,0.031022489070892334,0.019295193254947662,-0.01583520509302616,-0.01856151409447193,-0.024876629933714867,0.001683736452832818,0.0016423634951934218,-0.006575165782123804,0.02307344414293766,0.02342553436756134,0.0022583543322980404,0.013617156073451042,-0.0005033397465012968,-0.001426922855898738,0.008316622115671635,-0.020211996510624886,-0.0263857152312994,0.0044298493303358555,-0.01348818838596344,-0.0006715689669363201,-0.01486227661371231,-0.016798190772533417,-0.005551155190914869,-0.03556620702147484,-0.016375510022044182,-0.00939873792231083,-0.0006317099323496222,0.031854137778282166,0.003991957753896713,0.025727059692144394,0.006957316305488348,-0.0066602798178792,-0.034472979605197906,0.03068172186613083,-0.01001014094799757,0.028800342231988907,0.02340810000896454,-0.03053615242242813,-0.026396384462714195,-0.015485771000385284,-0.002934080082923174,0.010231059975922108,0.027779096737504005,-0.005074792541563511,0.017387215048074722,0.02954460307955742,-0.026206230744719505,0.0316288098692894,0.0211741141974926,0.017537260428071022,-0.0038589134346693754,-0.030420668423175812,-0.017131391912698746,0.011428403668105602,-0.0339915007352829,0.01938306726515293,0.03379588574171066,-0.02693035639822483,0.010362676344811916,0.0249380674213171,0.014582125470042229,0.02469620294868946,0.03089887835085392,0.022026073187589645,-0.0035174605436623096,0.005979103036224842,-0.000880581559613347,0.008117839694023132,0.0010423436760902405,0.010001816786825657,0.021233731880784035,0.0324997752904892,0.00018653759616427124,-0.0036481430288404226,-0.01884244568645954,0.02860300801694393,0.021542010828852654,-0.008728799410164356,-0.022311503067612648,-0.00393789354711771,0.0314328633248806,-0.008855783380568027,-0.012848520651459694,0.027705339714884758,0.028307903558015823,-0.008964618667960167,0.03212111443281174,0.024143068119883537,0.0062422975897789,-0.018165891990065575,-0.018832333385944366,-0.012193274684250355,0.0343514159321785,0.00431432481855154,0.019291898235678673,-0.003600260242819786,0.026132239028811455,0.032401569187641144,0.013935012742877007,0.0014343704096972942,-0.022242223843932152,0.022504610940814018,0.024577895179390907,0.03169810771942139,0.025982806459069252,-0.006606268230825663,-0.014173679053783417,-0.0018418703693896532,0.03405315801501274,0.023632880300283432,-0.02657664567232132,0.024029163643717766,-0.0075166658498346806,0.03404022753238678,0.03566676005721092,0.016526440158486366,0.024254536256194115,-0.020456088706851006,-0.010317041538655758,0.024633176624774933,-0.012979491613805294,-0.0003803343279287219,0.018929794430732727,-0.004165212158113718,0.005182996392250061,0.004517645109444857,0.02706807851791382,0.02081356756389141,0.018417831510305405,-0.012288152240216732,-0.0020432223100215197,0.03247451037168503,-0.025718512013554573,0.013511395081877708,-0.02196279726922512,-0.016927052289247513,-0.0055077653378248215,-0.017721140757203102,-0.0010581377428025007,0.015211445279419422,-0.007851450704038143,-0.027290983125567436,0.008031315170228481,0.03106309287250042,0.016442790627479553,0.010657967999577522,-0.02782660350203514,0.005750385578721762,-0.01704791933298111,-0.007573805283755064,-0.00040792234358377755,-0.01395256258547306,0.03406462073326111,-0.026642611250281334,0.008994156494736671,0.03412216529250145,-0.005633065942674875,0.0013506889808923006,-0.02494329959154129,0.03462657704949379,0.020885784178972244,0.00883239321410656,0.013060007244348526,-0.0333554707467556,0.010068082250654697,0.012811430729925632,0.025701291859149933,0.010282209143042564,0.0003022371674887836,0.027764588594436646,0.018981872126460075,-0.017494382336735725,0.01768016256392002,0.01741156354546547,0.005177571438252926,0.005197455640882254,-0.0061976430006325245,0.028946086764335632,0.02642487734556198,0.01286938227713108,0.031027041375637054,0.023520715534687042,0.002908327616751194,-0.017687112092971802,0.004625597503036261,0.010416614823043346,0.022194702178239822,0.0023416634649038315,0.03384535759687424,-0.020839860662817955,-0.0191202349960804,0.009487508796155453,0.007235323544591665,-0.013489725068211555,0.009759873151779175,0.03368770331144333,0.029614510014653206,0.021466271951794624,-0.020988240838050842,0.026365183293819427,0.005692575126886368,0.018021009862422943,0.0010028622345998883,-0.029755229130387306,-0.02855501137673855,0.015242135152220726,0.009805697947740555,-0.0182492695748806,-0.030422629788517952,-0.026576224714517593,0.019732173532247543,-0.033233772963285446,0.010369737632572651,0.03022032044827938,-0.027962377294898033,0.031577084213495255,0.01276348251849413,-0.010058446787297726,-0.021979963406920433,0.00807394552975893,0.00046505179489031434,-0.008268835954368114,0.0007069627172313631,-0.0002834098704624921,0.030926315113902092,-0.0159780103713274,0.024481991305947304,0.03119516186416149,0.018720339983701706,0.03176835551857948,-0.023574206978082657,-0.03451015427708626,-0.0003716640640050173,-0.020975081250071526,-0.014067240059375763,0.018989495933055878,-0.005713391117751598,0.01569001004099846,0.012897003442049026,0.025429701432585716,-0.00827979575842619,0.03130729869008064,0.03292242810130119,0.0008218731381930411,-0.01822728104889393,-0.022144436836242676,0.0006293246406130493,-0.015767116099596024,-0.027943745255470276,-0.03164193034172058,0.012957022525370121,0.004342756234109402,0.0033980098087340593,-0.02618435211479664,0.024565603584051132,-0.02586521953344345,-0.013314024545252323,0.016919152811169624,-0.0038186272140592337,0.029919473454356194,0.018357692286372185,0.01533424761146307,-0.019461428746581078,-0.016931811347603798,-0.010662845335900784,0.029946517199277878,0.01112897414714098,0.025002218782901764,-0.0022421409375965595,-0.02781839109957218,-0.013417268171906471,0.015723582357168198,-0.02344052493572235,-0.030397284775972366,-0.03548842668533325,-0.025233320891857147,0.010187499225139618,0.0012982316548004746,-0.00759687228128314,-0.028525564819574356,-0.02050255425274372,0.028952283784747124,-0.02199905551970005,0.0037623022217303514,-0.0072774216532707214,-0.02191520668566227,0.022097935900092125,-0.02190769836306572,0.030820967629551888,-0.008616400882601738,0.015533868223428726,-0.029439279809594154,-0.03158790245652199,-0.020970042794942856,-0.001090256031602621,0.0316462479531765,-0.025417057797312737,0.035391319543123245,-0.0015562423504889011,0.011822395958006382,0.0002438756637275219,0.0046314578503370285,0.016625965014100075,-0.016420481726527214,0.02010912075638771,-0.017190968617796898,0.019396767020225525,0.014191274531185627,-0.0007623842102475464,0.030305009335279465,-0.026700682938098907,-0.034859549254179,0.02476402372121811,-0.03018956072628498,0.031681060791015625,-0.030277784913778305,-0.013888242654502392,-0.022823553532361984,-0.026856431737542152,-0.021225199103355408,0.01558784581720829,0.011085079051554203,0.0009246412664651871,-0.005544118583202362,0.018556056544184685,-0.0008788610575720668,0.029705306515097618,0.01945481263101101,0.015129935927689075,-0.02738606557250023,-0.01119847223162651,-0.008932610973715782,-0.0026649723295122385,-0.014580096118152142,-0.015508223325014114,0.03351704776287079,-0.007493495475500822,0.014460539445281029,0.03285890445113182,-0.00648238742724061,0.011707273311913013,0.024420613422989845,-0.017758851870894432,-0.020694071426987648,-0.03050287812948227,0.0038392809219658375,0.014574401080608368,0.01802399381995201,0.009629207663238049,-0.031217793002724648,-0.03484434261918068,-0.01976160891354084,-0.014105474576354027,0.002408598316833377,0.004066003952175379,-0.01275167427957058,0.01180990505963564,-0.02244873344898224,0.00832671020179987,-0.01039818488061428,-0.014090432785451412,-0.018520720303058624,0.011837922967970371,-0.024020321667194366,-0.03076094761490822,-0.023521147668361664,0.030905039981007576,0.012065170332789421,0.006842773407697678,0.01485592219978571,0.011622754856944084,0.026325523853302002,0.029725322499871254,0.023320766165852547,0.005549272056668997,0.0021615999285131693,-0.025266360491514206,0.007316654548048973,-0.007641299162060022,-0.032255399972200394,0.018557054921984673,0.011921160854399204,-0.003022420685738325,0.012541396543383598,-0.005343970842659473,0.019141599535942078,0.030413199216127396,-0.012890638783574104,-0.0145393256098032,-0.003308541141450405,-0.020237550139427185,-0.019971124827861786,0.006615351885557175,-0.014460963197052479,-0.004411432426422834,0.024128751829266548,0.013494857586920261,0.02279285341501236,-0.021093303337693214,0.025559360161423683,0.002986674662679434,0.030480900779366493,-0.014694105833768845,0.029678143560886383,-0.03010624274611473,-0.016602566465735435,0.025329329073429108,0.008135139010846615,-0.0013959358911961317,0.013443149626255035,-0.002117800759151578,0.015300095081329346,-0.003704395378008485,-0.02507680654525757,0.003881816053763032,-0.007867295295000076,0.00888527650386095,0.03432969003915787,-0.02725091576576233,-0.002280882792547345,-0.026366883888840675,-0.00226770993322134,-0.019869092851877213,-0.007678428199142218,0.027131056413054466,-0.01334004569798708,-0.020463792607188225,0.027056070044636726,-0.01455979235470295,-0.026743939146399498,-0.0019071613205596805,0.015962157398462296,0.018118875101208687,0.022854920476675034,-0.03560630977153778,-0.029184048995375633,-0.03517252579331398,0.017800353467464447,0.025691846385598183,-0.004401468206197023,-0.03378148376941681,0.02958974801003933,-0.006199645344167948,-0.006070295814424753,0.01378717739135027,0.031225189566612244,0.008275181986391544,0.013682796619832516,0.016813233494758606,-0.00019819848239421844,-0.010034186765551567,-0.008276904933154583,0.02414228394627571,-0.02835576795041561,0.023718232288956642,-0.01183381024748087,-0.01024229172617197,-0.00855644978582859,0.023650027811527252,0.015493843704462051,-0.02880108542740345,-0.011027493514120579,-0.03308124840259552,0.020177194848656654,-0.00019404332851991057,0.013549461960792542,-0.030276639387011528,0.02927708625793457,0.009603181853890419,0.02788768894970417,-0.023794380947947502,-0.011763270013034344,-0.019638411700725555,0.001745490008033812,0.015188783407211304,-0.01109036523848772,0.02673853561282158,-0.03390957787632942,-0.0147579126060009,0.00015580508625134826,0.013470785692334175,-0.013459550216794014,0.03191063925623894,-0.018283765763044357,-0.011079296469688416,-0.011121736839413643,-0.011637629941105843,-0.03161384165287018,-0.018867090344429016,-0.00533525412902236,-0.01866447553038597,-0.015133768320083618,0.020170215517282486,0.011500214226543903,0.0018725348636507988,0.011407574638724327,0.02991454489529133,0.026476632803678513,0.030465250834822655,-0.028491897508502007,0.015558499842882156,0.019290907308459282,0.03268589824438095,-0.033842772245407104,-0.008084699511528015,-0.01915857568383217,-0.02681703120470047,-0.029245523735880852,0.0024683442898094654,0.025842638686299324,-0.018991995602846146,-0.006233425345271826,-0.01953573152422905,-0.0044027878902852535,0.013963516801595688,0.014154704287648201,0.014685286208987236,-0.009823993779718876,-0.031526822596788406,0.008701412938535213,-0.007007357198745012,0.011559898033738136,-0.016742434352636337,0.032624680548906326,-0.017700031399726868,0.004464654251933098,0.007520176004618406,-0.005163808353245258,0.02258911170065403,0.003635730128735304,0.0010661722626537085,-0.02778974547982216,-0.016012150794267654,0.021376624703407288,0.025506792590022087,-0.020265955477952957,0.03561035543680191,-0.03228138014674187,-0.008719174191355705,-0.030880318954586983,-0.008217010647058487,0.03525478020310402,-0.028947580605745316,-0.026801953092217445,0.029604757204651833,-0.010488064959645271,-0.011414176784455776,-0.005222594365477562,0.011701897718012333,0.005154795479029417,-0.015866050496697426,0.017070844769477844,-0.014126247726380825,0.025784388184547424,0.008330960758030415,-0.0342511385679245,-0.01652088761329651,-0.02158014290034771,-0.01003660075366497,0.010136839002370834,-0.012692764401435852,-0.03060438483953476,0.029848311096429825,-0.029583174735307693,-0.029575606808066368,0.023818228393793106,-0.03490057587623596,0.03550928086042404,0.024235641583800316,-0.014490349218249321,-0.010559839196503162,0.030840424820780754,-0.026912810280919075,0.003786290530115366,0.020914699882268906,-0.026670826599001884,-0.0038676573894917965,-0.0030942480079829693,0.032649364322423935,0.0014582634903490543,0.03519434481859207,-0.031642526388168335,-0.0161521565169096,-0.01538002584129572,0.016593970358371735,-0.03169836848974228,0.018498798832297325,0.022610777989029884,-0.002341445768252015,-0.018630823120474815,-0.013823083601891994,0.014675880782306194,-0.002901908475905657,-0.019701162353157997,0.01588153839111328,0.021692292764782906,0.029459472745656967,0.007122265640646219,0.017119143158197403,-0.031686387956142426,0.014433985576033592,-0.009948451071977615,-0.03550134599208832,0.01885787956416607,0.027662178501486778,-0.018352437764406204,-0.027703942731022835,0.023519013077020645,0.00683680409565568,-0.016028225421905518,0.029701173305511475,-0.03540435805916786,-0.005626969039440155,-0.016631852835416794,0.018615128472447395,-0.02663540653884411,0.016478611156344414,-0.020130742341279984,-0.03559871017932892,0.015239252708852291,-0.0036595971323549747,0.03070991300046444,-0.023884644731879234,0.0052438583225011826,0.0071262274868786335,-0.011577330529689789,0.015307731926441193,0.012362602166831493,0.02607255056500435,-0.03335331007838249,0.009553913958370686,0.020863818004727364,0.03336493670940399,-0.033235616981983185,-0.007418377324938774,0.012138203717768192,0.024873755872249603,-0.013878596015274525,-0.01293586939573288,0.020328842103481293,-0.027407323941588402,0.008245709352195263,0.02719622477889061,-0.0036468105390667915,0.0026545552536845207,0.004658751655369997,-0.024669114500284195,0.019720040261745453,0.014886857941746712,0.02192542888224125,0.02458290196955204,0.006159097887575626,-0.024742932990193367,0.01482421811670065,-0.033109746873378754,0.013030020520091057,-0.017763955518603325,-0.0029409986454993486,-0.009783471934497356,-0.032083477824926376,0.024322591722011566,0.017030080780386925,-0.007280352525413036,0.020176848396658897,0.0028848692309111357,0.03091193176805973,0.023869069293141365,-0.026983827352523804,-0.0012363988207653165,-0.007147935684770346,0.026094304397702217,0.03142552822828293,-0.019535962492227554,-0.0026739207096397877,-0.029072562232613564,0.013945193961262703,0.02240854874253273,-0.025642801076173782,-0.025114374235272408,0.0073752328753471375,0.031064268201589584,-0.007963956333696842,-0.015299009159207344,-0.00675128772854805,0.029685087502002716,0.012140092439949512,-0.01451099943369627,0.007450088858604431,0.012759754434227943,-0.010648591443896294,0.018942423164844513,0.03197917342185974,-0.022558804601430893,-0.017914868891239166,0.00614540558308363,-0.01555676944553852,0.02828945405781269,0.01867816410958767,-0.016008416190743446,0.031255628913640976,0.010424069128930569,0.022656915709376335,-0.0019229004392400384,0.0213155560195446,-0.013181147165596485,0.01662987284362316,-0.00041744462214410305,-0.02315559610724449,-0.034220367670059204,-0.034451790153980255,0.03100312501192093,0.0072984532453119755,0.020675459876656532,0.01850627362728119,-0.024576986208558083,-0.00045838189544156194,0.024439483880996704,-0.031395453959703445,-0.02833770401775837,0.011765941046178341,0.026555322110652924,-0.030094709247350693,0.025791388005018234,0.007089410442858934,0.02684824913740158,-0.014464687556028366,-0.013957886025309563,0.03303328529000282,-0.014114715158939362,-0.011101982556283474,-0.015558690764009953,-0.032011065632104874,0.01673046499490738,-0.004863869398832321,0.019513309001922607,0.01692814938724041,0.016502035781741142,0.021576717495918274,-0.026212843134999275,0.0010154190240427852,0.00998831819742918,0.028089627623558044,0.021809419617056847,-0.01556975208222866,-0.019781777635216713,0.028800366446375847,-0.014342017471790314,-0.0176425501704216,-0.03173569589853287,0.035464540123939514,0.022074200212955475,0.020268110558390617,-0.033504992723464966,0.00223880959674716,0.002378046978265047,0.020219914615154266,0.024614602327346802,0.02514554373919964,-0.0019495091401040554,0.02106325887143612,0.03388796001672745,-0.03139527514576912,0.026400074362754822,-0.009385970421135426,-0.005011450964957476,-0.03515228256583214,0.011070944368839264,0.006162822712212801,0.03498542308807373,0.01705510914325714,0.0009836135432124138,5.098759629618144e-06,0.01793784089386463,-0.02898481674492359,0.03315740451216698,-0.023712225258350372,-0.014580386690795422,-0.026593010872602463,0.003996845334768295,-0.0225934199988842,-0.018432676792144775,-0.034425076097249985,-0.023759875446558,-0.005873935297131538,0.0007814459968358278,-0.018073946237564087,0.008527221158146858,-0.014193693175911903,0.016912201419472694,-0.002506698714569211,0.02639421820640564,0.02158265933394432,-0.01687845215201378,0.011819617822766304,-0.008274191059172153,-0.014487331733107567,0.021320227533578873,0.01429872028529644,-0.0283817145973444,-0.03385476768016815,-0.019106155261397362,0.03351391851902008,0.01885673776268959,0.019689911976456642,-0.0344109907746315,-0.019338788464665413,-0.021215036511421204,0.02467259019613266,0.030670959502458572,-0.02910345420241356,-0.0006511581013910472,0.017521454021334648,0.016343237832188606,0.012361745350062847,-0.008093430660665035,0.015436580404639244,0.02727903053164482,0.002337086945772171,-0.0152836162596941,0.02587082050740719,0.028179632499814034,-0.011782691814005375,0.03497786074876785,0.006717435084283352,0.0299025047570467,-0.005454355850815773,0.008690057322382927,-0.014147955924272537,0.006365640088915825,-0.021138666197657585,-0.021169593557715416,0.015173185616731644,-0.0012792315101251006,-0.00471839401870966,-0.02185099758207798,0.03320588171482086,0.016917822882533073,-0.016077525913715363,-0.0022083770018070936,-0.022796791046857834,0.028546301648020744,0.017226869240403175,0.011667484417557716,-0.0338723361492157,-0.0021093429531902075,-0.033099401742219925,-0.03549953177571297,0.022624686360359192,-0.019791467115283012,-0.008244502358138561,-0.029302015900611877,0.002307275775820017,0.027132710441946983,-0.005825344938784838,0.027203494682908058,-0.002940076868981123,0.032326839864254,-0.013968998566269875,-0.026440223678946495,0.003483403008431196,-0.01907886005938053,-0.01744868978857994,0.00010430683323647827,-0.032962616533041,-0.021508704870939255,-0.0025514091830700636,0.016458623111248016,-0.007982607930898666,0.016799049451947212,-0.035507932305336,-0.006870392709970474,-0.018296295776963234,-0.03308236971497536,-0.03198274224996567,-0.009107289835810661,-0.005111026111990213,0.010167359374463558,0.023522140458226204,-0.02458200603723526,0.01773475669324398,-0.02008603885769844,-0.02793564461171627,0.03193783387541771,0.016985883936285973,0.0020660890731960535,0.02181692235171795,0.011052638292312622,0.003124949522316456,-0.015311534516513348,-0.004976972471922636,0.021048666909337044,-0.033707600086927414,0.01581517793238163,0.015102173201739788,0.006047230213880539,0.017483744770288467,0.01061877142637968,0.02456115372478962,-0.010625578463077545,0.01186787523329258,0.014971662312746048,-0.026580926030874252,-0.02672673761844635,0.030009517446160316,-0.020490849390625954,-0.01275597419589758,-0.024728694930672646,-0.011590936221182346,0.020294561982154846,0.0142909474670887,0.015084866434335709,0.024863310158252716,0.034797701984643936,-0.009753906168043613,-0.013863379135727882,-0.00600004568696022,-0.0009679717477411032,0.03460206836462021,0.01890716329216957,0.0058029512874782085,-0.025722598657011986,0.02915763109922409,-0.020559189841151237,0.03061114437878132,-0.012775473296642303,-0.013010365888476372,-0.001020024181343615,-0.018751665949821472,0.025997182354331017,0.02739168517291546,0.02330745756626129,-0.015991082414984703,0.002940174425020814,0.02642473578453064,-0.02139177918434143,-0.017758522182703018,-0.03128630295395851,-0.02940620668232441,-0.013794604688882828,-0.0055111912079155445,0.02403079904615879,0.014098846353590488,0.03094780072569847,0.018948864191770554,0.01218343060463667,-0.021064458414912224,-0.01850185915827751,0.003912610933184624,0.021845092996954918,-0.019569462165236473,-0.016469888389110565,0.011810109950602055,0.0056451126001775265,0.014936406165361404,0.0245194211602211,-0.026903320103883743,-0.019427679479122162,-0.01022080983966589,-0.028128325939178467,-0.017278051003813744,-0.028249721974134445,-0.01917414553463459,0.016671186313033104,-0.011775371618568897,0.0010127013083547354,0.013138252310454845,0.023772604763507843,-0.030446210876107216,0.008968035690486431,-0.022363560274243355,0.029419617727398872,-0.006747354753315449,-0.0007662470452487469,-0.003975223284214735,0.023226018995046616,0.019042612984776497,0.007147324271500111,0.027495333924889565,-0.019528061151504517,0.006271722726523876,0.0030981283634901047,-0.030700942501425743,0.002496659755706787,-0.03205527365207672,-0.0054241870529949665,-0.019882671535015106,0.018727175891399384,0.0020944743882864714,-0.0034576100297272205,0.004943261854350567,-0.03031705692410469,0.01809152215719223,0.02616647258400917,0.0176947470754385,0.009155360981822014,-0.03542603552341461,-0.029513781890273094,-0.03421073406934738,0.006903393659740686,0.003320433897897601,-0.017786512151360512,0.02080654725432396,-0.02367807924747467,-0.006897092331200838,-0.007529242895543575,0.026310158893465996,-0.03570711240172386,0.005867535248398781,0.012454903684556484,0.01292098592966795,-0.031068693846464157,-0.02530556358397007,0.005543997511267662,0.015285187400877476,-0.020568031817674637,0.0235881544649601,-0.02237127162516117,-0.019110020250082016,-0.03002188727259636,-0.02259794995188713,-0.0060015772469341755,-0.024012109264731407,0.005004731006920338,0.01737179048359394,-0.013181895017623901,-0.000407714513130486,-0.007054569199681282,-0.026589250192046165,-0.02925080806016922,0.02754603885114193,-0.03309119865298271,0.0008282073540613055,-0.016474192962050438,0.02762288600206375,-0.008884463459253311,-0.021265815943479538,0.023278580978512764,-0.005005532875657082,-0.019082125276327133,0.0065691061317920685,-0.022650115191936493,0.028109971433877945,0.004170054569840431,-0.003563584992662072,-0.02207360416650772,-0.023676862940192223,-0.014493156224489212,-0.013395596295595169,0.0009116854635067284,-0.019313590601086617,0.006052045151591301,0.02626492828130722,-0.0253218412399292,0.018917247653007507,0.007413145620375872,-0.010516428388655186,0.0056093186140060425,0.02303573489189148,-0.031851399689912796,0.014961489476263523,0.02820945531129837,-0.017861977219581604,-0.013769620098173618,-0.031491294503211975,-0.02664843015372753,0.007162696216255426,0.030540723353624344,-0.024238022044301033,0.017141303047537804,0.00299381953664124,-0.01673899032175541,-0.005041404161602259,0.002804468385875225,0.013381150551140308,-0.017466476187109947,-0.001745566027238965,0.027890371158719063,-0.023466182872653008,-0.005119032692164183,0.017376653850078583,0.018621550872921944,-0.007294681388884783,-0.008354322984814644,-0.001566387014463544,-0.015628276392817497,0.006343833636492491,0.008883772417902946,-0.0035714160185307264,-0.004030039068311453,-0.028203632682561874,0.024942878633737564,0.00920262560248375,-0.02077479101717472,0.03249493986368179,0.011247956193983555,0.006412638816982508,0.004497241228818893,0.02841479331254959,0.03319826349616051,-0.018135709688067436,0.012514813803136349,-0.029175952076911926,0.004939042031764984,0.01884305477142334,-0.019477032124996185,0.017616838216781616,0.03560294583439827,-0.013480539433658123,-0.002899163169786334,0.03401688113808632,0.024567827582359314,0.019912101328372955,0.01166385505348444,-0.021258069202303886,0.008922980166971684,1.4593161722586956e-05,-0.017436934635043144,-0.014130404219031334,-0.0068673910573124886,-0.03029661811888218,-0.03331627696752548,0.02691294439136982,0.013258869759738445,-0.01766231283545494,-0.01733742095530033,0.007418268825858831,-0.012593244202435017,0.003256227821111679,-0.018496915698051453,0.02595672756433487,0.02778872847557068,0.014513563364744186,-0.0029573035426437855,0.016352826729416847,-0.019496651366353035,0.0186897162348032,0.017845196649432182,0.0027738423086702824,0.03161732107400894,0.004906236194074154,-0.0017312961863353848,0.01767527312040329,0.024068433791399002,-0.010713296011090279,0.0024247942492365837,-0.015531620010733604,-0.020514514297246933,0.019268060103058815,-0.008769169449806213,-0.019109291955828667,0.034601520746946335,-0.00429091602563858,-0.031554073095321655,0.015151883475482464,-0.03014756739139557,0.004777596797794104,0.010603724978864193,0.005317529663443565,0.0021046295296400785,0.00015609734691679478,-0.020877450704574585,0.010758890770375729,-0.024954183027148247,-0.027256693691015244,-0.024496758356690407,0.01412371825426817,-0.020668692886829376,-0.00127331109251827,-0.030511798337101936,0.03294527158141136,-0.016743697226047516,0.023102309554815292,0.0269378162920475,-0.009837763383984566,0.02376606874167919,-0.007856793701648712,-0.02223518118262291,0.023701351135969162,-0.016517136245965958,0.009336071088910103,0.007060417905449867,0.025937717407941818,-0.029171282425522804,-0.012306151911616325,0.013032609596848488,-0.00930419284850359,0.004869093187153339,-0.030522668734192848,-0.00317635596729815,-0.02964031882584095,0.031582288444042206,0.02243247628211975,-0.02926085703074932,0.0033285189419984818,-0.03558731451630592,0.020432759076356888,0.009837334044277668,0.024212727323174477,-0.021749461069703102,-0.007275257259607315,0.015737099573016167,0.013924789614975452,-0.0006166397361084819,-0.01530622411519289,0.01247831154614687,0.03492388129234314,-0.03076443448662758,0.0033204304054379463,0.00040687754517421126,0.016281208023428917,0.03093343786895275,-0.017153387889266014,-0.01387565303593874,0.016783326864242554,0.03148452565073967,0.007733843754976988,0.025204502046108246,-0.01908251829445362,0.016085390001535416,0.008973866701126099,0.012487933970987797,-0.028916724026203156,0.028891580179333687,0.0059065246023237705,-0.012196559458971024,0.011003709398210049,-0.010908730328083038,-0.024905214086174965,-0.017205575481057167,-0.0005913876811973751,0.016950227320194244,-0.01814560778439045,0.0015933586983010173,0.031935110688209534,-0.031110195443034172,-0.0338929258286953,-0.008447407744824886,-0.021437225863337517,0.010207653045654297,-0.01939336769282818,0.008545857854187489,0.026389284059405327,-0.027827348560094833,0.0007990506128408015,-0.033643461763858795,0.014819136820733547,-0.024065261706709862,0.009322216734290123,-0.033033691346645355,0.03221558406949043,-0.004818876273930073,-0.027490634471178055,0.012598703615367413,0.027666037902235985,-0.01657659187912941,-0.005504809785634279,0.025988716632127762,0.017676942050457,-0.0068558887578547,-0.01168743148446083,-0.029985463246703148,0.002004458336159587,-0.0342492014169693,-0.013383988291025162,0.0015229260316118598,0.01422964595258236,-0.02976294979453087,0.008604021742939949,-0.02447350136935711,0.03322698548436165,-0.026513898745179176,0.00030941315344534814,-0.03347167745232582,-0.000871375494170934,-0.004067252390086651,-0.02398594096302986,-0.012337627820670605,0.029197052121162415,0.019472884014248848,-0.008235572837293148,-0.027123600244522095,-0.01331076119095087,-0.021013349294662476,-0.0033970291260629892,-0.03443053737282753,-0.03347653150558472,-0.008797183632850647,0.008754674345254898,0.005742758512496948,-0.016404055058956146,0.021205883473157883,-0.00897885300219059,-0.008369109593331814,0.01936124823987484,-0.008530640043318272,0.023684395477175713,0.03457150235772133,-0.0010549380676820874,0.0002797681954689324,0.02280608005821705,-0.01439227256923914,-0.019759049639105797,-0.005694483406841755,0.021060926839709282,0.0037191719748079777,0.02394610270857811,0.01782071217894554,0.018283706158399582,-0.0035766439978033304,-0.017355768010020256,0.023529209196567535,0.030132893472909927,-0.032039761543273926,0.005093296989798546,-0.028895098716020584,0.013941649347543716,-0.02700848877429962,0.03128344938158989,-0.0013512816512957215,0.016988806426525116,0.02433440461754799,-0.01992509886622429,-0.002809601603075862,-0.010995855554938316,-0.012323394417762756,0.02193336933851242,-0.023366933688521385,0.02154836431145668,-0.004340508487075567,0.006675098557025194,0.02353857085108757,0.02667849510908127,-0.030172744765877724,-0.03464216738939285,-0.03523281216621399,0.01231202483177185,-0.032218266278505325,0.025490498170256615,-0.008189872838556767,-0.00880119763314724,0.027420271188020706,0.014969534240663052,0.001970977522432804,-0.031070465222001076,0.002882343716919422,0.017975352704524994,0.015047484077513218,-0.033052753657102585,0.02744484692811966,0.011349801905453205,0.015560614876449108,0.02180679701268673,-0.012336057610809803,0.010550905019044876,-0.007235011551529169,-0.00231685908511281,0.016133593395352364,0.030666789039969444,-0.010349258780479431,0.014084010384976864,0.03406903147697449,0.02876032330095768,0.033527206629514694,-0.028686588630080223,-0.023526718840003014,0.015440861694514751,-0.0007182928966358304,0.015360641293227673,0.01656804420053959,0.027451517060399055,-0.01694059744477272,-0.032625555992126465,-0.03299057483673096,0.029031096026301384,0.0049665519036352634,0.03102022036910057,0.02695276401937008,0.019345348700881004,0.015634000301361084,-0.03383563831448555,-0.03549839183688164,0.03472664952278137,-0.020269252359867096,-0.026721937581896782,-0.001970290904864669,-0.010470076464116573,-0.02469135820865631,0.03060080297291279,0.0016527429688721895,-0.0015802464913576841,-0.02650914154946804,-0.024062111973762512,-0.007063013035804033,0.014484266750514507,-0.023182446137070656,0.030785581097006798,0.026988403871655464,-0.013779143802821636,0.017513126134872437,0.02991335652768612,-0.003664927091449499,-0.0039955745451152325,-0.022461995482444763,-0.024592261761426926,-0.011864976957440376,-0.0009692889871075749,-0.027490098029375076,0.003319128416478634,-0.016081929206848145,0.024444736540317535,0.009783023037016392,-0.005181354004889727,0.001364456256851554,0.024123644456267357,-0.0065216547809541225,-0.022758126258850098,0.021424155682325363,-0.024500742554664612,0.023238180205225945,-0.029394332319498062,-0.011216793209314346,0.004843295086175203,0.025941001251339912,0.010910053737461567,-0.026583602651953697,0.025933055207133293,-0.027524622157216072,-0.027055373415350914,0.0353112518787384,-0.023451725021004677,-0.009728659875690937,0.004939342848956585,0.018328603357076645,-0.023822065442800522,0.02988845854997635,-0.0005315206944942474,-0.021675342693924904,-0.002315291902050376,-0.025251219049096107,-0.023271875455975533,0.01607847958803177,-0.029065467417240143,-0.02436036244034767,-0.02353423461318016,0.012369525618851185,0.026792239397764206,0.0003310843603685498,-0.01770625449717045,0.008104948326945305,0.026860371232032776,-0.03372441977262497,-0.01956886053085327,0.009681334719061852,0.022138278931379318,0.004621170926839113,-0.022145403549075127,0.0074157495982944965,0.019108111038804054,-0.017557518556714058,-0.00039935793029144406,0.007117060478776693,0.020081734284758568,0.015514741651713848,-0.009184835478663445,-0.02460220269858837,-0.005109142512083054,-0.020155323669314384,-0.023907139897346497,-0.02316867932677269,-0.018446775153279305,0.02695043943822384,0.0041518486104905605,-0.011283253319561481,-0.011972405016422272,0.005728596355766058,-0.028027500957250595,0.02165021002292633,0.022445423528552055,0.028586113825440407,0.014871325343847275,0.003796365112066269,0.03241285681724548,0.00927264615893364,-0.03092828579246998,0.029184142127633095,0.018032889813184738,-0.021280236542224884,0.002768090693280101,0.03401714935898781,0.006687664892524481,0.031191954389214516,-0.018106235191226006,0.014469807967543602,-0.030264895409345627,0.020823325961828232,-0.0345054529607296,-0.004833295941352844,0.027257682755589485,-0.006854871287941933,0.03182416036725044,0.006542795337736607,-0.00828283280134201,0.017965910956263542,-0.0284561887383461,-0.016709236428141594,-0.03180718049407005,0.003902825526893139,0.004366162698715925,0.029087290167808533,0.0030246528331190348,0.013898656703531742,-0.013489140197634697,-0.0021053848322480917,-0.011019464582204819,-0.0212917048484087,-0.01946214772760868,-0.020432064309716225,0.030909547582268715,0.03548421338200569,-0.0014521036064252257,0.020736070349812508,-0.0042768740095198154,-0.017753293737769127,-0.03202095255255699,0.034082744270563126,0.013081567361950874,-0.0010272788349539042,0.02468906342983246,0.014817972667515278,0.009797484613955021,-0.010583874769508839,-0.00611940398812294,0.014409675262868404,0.0011730773840099573,-0.030166927725076675,0.020559711381793022,0.02326509729027748,0.019517555832862854,0.023220496252179146,-0.00907047651708126,0.007088190875947475,-0.01676618680357933,-0.023053038865327835,-0.01840069517493248,0.02693309634923935,-0.022039053961634636,0.01811508648097515,0.004482689779251814,0.03129767253994942,0.033094409853219986,0.03253493085503578,-0.021393882110714912,0.028108881786465645,-0.03063054010272026,-0.011718169786036015,-0.0324195995926857,-0.0024709312710911036,0.01596621423959732,0.0351392962038517,-0.01411948911845684,-0.025357870385050774,0.022017812356352806,-0.028532322496175766,0.006162840873003006,-0.031117970123887062,-0.009793727658689022,0.014531640335917473,-0.027678832411766052,0.006841941270977259,-0.021855628117918968,0.019095180556178093,0.027988599613308907,0.01403809618204832,0.01850051060318947,-0.007148995529860258,-0.012635461054742336,0.001475097262300551,0.01054229587316513,-0.021837783977389336,-0.012636051513254642,0.012641865760087967,-0.03218773752450943,-0.03158894181251526,0.012518033385276794,0.024656904861330986,0.012204400263726711,0.0006459920550696552,-0.018737932667136192,-0.024042021483182907,-0.024668291211128235,-0.017625661566853523,0.0025458969175815582,0.034384630620479584,-0.024791046977043152,0.0066819642670452595,0.016978248953819275,0.02887102961540222,-0.028564689680933952,-0.0009516664431430399,0.008802756667137146,0.03016246296465397,-0.01516308356076479,-0.004977786913514137,-0.035347744822502136,0.0077531724236905575,0.014157886616885662,-0.017661333084106445,0.03277254104614258,0.006692497991025448,-0.0331566222012043,-0.001039830269291997,0.010103318840265274,-0.006316686049103737,-0.002099181991070509,0.032114386558532715,-0.02327403798699379,0.01670745573937893,-0.0014421254163607955,0.015554556623101234,-0.0011623749742284417,-0.016029346734285355,-0.021488871425390244,0.028258277103304863,0.02972203679382801,0.015387093648314476,0.0071016233414411545,-0.022093620151281357,0.002679721685126424,-0.03040480799973011,-0.012271972373127937,0.01903766579926014,0.012724393978714943,-0.028605930507183075,-0.022104810923337936,-0.020850922912359238,0.02588001638650894,0.02812763676047325,-0.020382307469844818,-0.00919743999838829,0.008526935242116451,-0.012342315167188644,0.02668602578341961,-0.02361617609858513,0.013182025402784348,-0.02599468268454075,-0.01898791268467903,0.0016319131245836616,0.027563393115997314,0.022776588797569275,-0.01537068746984005,0.012720471248030663,-0.027654964476823807,-0.002457244321703911,0.020223360508680344,0.027537032961845398,0.033880628645420074,0.024731263518333435,0.00868149846792221,0.024184880778193474,-0.017961082980036736,0.007961003109812737,-0.003744408953934908,-0.024354036897420883,-0.007971876300871372,-0.026252247393131256,0.02944076620042324,-0.013515840284526348,-0.033675942569971085,-0.01212927047163248,-0.018801497295498848,-0.015122639946639538,-0.031168565154075623,-0.02993432804942131,0.010364681482315063,0.007602254394441843,0.009637666866183281,-0.011002209037542343,0.0011249894741922617,0.016806771978735924,0.00861551333218813,0.012789546512067318,0.03371308743953705,-0.016710763797163963,-0.02929791994392872,0.004710800480097532,0.025008102878928185,0.03364022821187973,-0.005490187555551529,-0.02353682555258274,-0.02292180247604847,-0.0334085151553154,-0.028571629896759987,0.021126708015799522,-0.020747216418385506,-0.007713814731687307,-0.03402668237686157,-0.031233295798301697,0.006808945909142494,-0.008969282731413841,-0.008525396697223186,0.0213776845484972,-0.012983384542167187,0.00931671354919672,0.024252451956272125,-0.0012000635033473372,-0.010430467315018177,-0.004482250660657883,0.027628814801573753,0.026467641815543175,-0.01273300964385271,0.01615552045404911,-0.0013227148447185755,0.002261172281578183,0.016470205038785934,0.017333416268229485,-0.003788911271840334,0.006969928275793791,-0.018150873482227325,0.006973997689783573,-0.007954299449920654,-0.03235144168138504,0.020120976492762566,-0.031333815306425095,0.004179304465651512,-0.0077574001625180244,-0.03272644802927971,-0.03160300850868225,-0.029887838289141655,0.02233060449361801,-0.0002018714731093496,0.00024314592883456498,-0.03351468965411186,0.034456610679626465,-0.030237004160881042,0.03428448736667633,0.004942618776112795,-0.03197425603866577,0.032987259328365326,0.029507076367735863,0.03487376496195793,0.029697338119149208,0.03441034257411957,-0.026858892291784286,-0.02239697054028511,0.0060491496697068214,-0.030818261206150055,0.022835787385702133,-0.019578145816922188,-0.008632463403046131,-0.004094094503670931,0.018555929884314537,0.011030476540327072,0.0014919659588485956,0.03186175599694252,0.003840171964839101,0.018939916044473648,-0.0040782056748867035,-0.0107303187251091,-0.028367960825562477,-0.028206055983901024,0.002902245381847024,-0.01802532747387886,-0.03460733965039253,-0.022620582953095436,0.009879129007458687,-0.02882774919271469,0.021476589143276215,-0.03498789295554161,-0.01780722476541996,0.015893639996647835,-0.02820100449025631,0.028698474168777466,0.015843981876969337,0.02747882902622223,-0.022106150165200233,-0.0010282628936693072,0.027808282524347305,-0.01595320925116539,-0.018516195937991142,0.0020656301639974117,0.027795806527137756,0.03507222235202789,-0.00729134026914835,-0.014360124245285988,0.005573080852627754,0.028342267498373985,-0.02156502939760685,0.029391378164291382,-0.027838613837957382,0.0245544221252203,-0.02919124811887741,-0.022758541628718376,0.02997925877571106,0.02020943909883499,-0.03426578268408775,0.017038604244589806,-0.03252173215150833,-0.003473184071481228,0.01477806270122528,-0.0034856649581342936,0.034176263958215714,-0.026927834376692772,-0.019642308354377747,-0.026794452220201492,-0.02179190330207348,-0.027330420911312103,-0.012634715996682644,0.034445762634277344,-0.031697891652584076,0.0017999612027779222,0.023311685770750046,0.03297770023345947,0.009569359011948109,0.022582046687602997,0.033931467682123184,0.02236119657754898,0.00834615807980299,0.00010191441106144339,-0.020504670217633247,-0.02405163086950779,-0.0025375396944582462,0.026179814711213112,-0.033630628138780594,0.031107096001505852,0.026438571512699127,-0.01913064531981945,0.02425939403474331,-0.000829179713036865,0.01940893568098545,0.012774433009326458,-0.0069819907657802105,0.005145235452800989,0.002528758952394128,0.025867659598588943,0.009125913493335247,0.004482789430767298,0.03161263465881348,-0.03498059883713722,0.018791640177369118,0.020147712901234627,-0.028795165941119194,0.016793977469205856,0.02495267614722252,0.025456134229898453,-0.015795305371284485,0.016069769859313965,-0.018766941502690315,-0.034761764109134674,0.030332796275615692,-0.004748319275677204,0.013653138652443886,0.006799973081797361,-0.012885231524705887,0.03459585830569267,-0.03340335935354233,0.01690557971596718,-0.0317278653383255,-0.02047674171626568,-0.006070458330214024,-0.0025281179696321487,0.022520702332258224,-0.03281804174184799,-0.03501634672284126,-0.01593543402850628,0.0044821202754974365,0.03380604460835457,0.030941784381866455,-0.002129042986780405,-0.032518256455659866,-0.0048317676410079,0.02125604636967182,0.024979909881949425,-0.011484818533062935,0.014692752622067928,0.03469141945242882,0.031090660020709038,-0.010717760771512985,0.027325689792633057,0.015458568930625916,0.026480184867978096,-0.0012751888716593385,0.03513959050178528,-0.019774531945586205,-0.018093714490532875,0.030507579445838928,0.030849440023303032,-0.019306540489196777,0.024881668388843536,0.007482463493943214,-0.022335302084684372,0.0035462563391774893,0.022875769063830376,-0.009081137366592884,0.007874746806919575,-0.01651483215391636,-0.026938343420624733,0.017956886440515518,-0.034068044275045395,-0.007674016989767551,-0.016716407611966133,0.029206624254584312,-0.014090725220739841,0.0025478212628513575,-0.017299044877290726,0.012193559668958187,0.028695089742541313,0.0033032798673957586,0.015788834542036057,0.016599105671048164,-0.014963251538574696,-0.01407946553081274,0.027662793174386024,-0.03191034123301506,-0.016845226287841797,-0.0028107925318181515,-0.02025458961725235,0.009810888208448887,0.030118273571133614,0.02731729857623577,0.00905376672744751,0.030136333778500557,0.005819398909807205,0.017492450773715973,0.010255197063088417,0.0007447156240232289,0.016089430078864098,-0.02194276638329029,0.025862304493784904,-0.022773386910557747,-0.012696400284767151,-0.0045110867358744144,-0.012244402430951595,-0.002919502090662718,-0.011688661761581898,0.027364470064640045,-0.015324900858104229,0.008898421190679073,-0.025077171623706818,-0.012962039560079575,0.02929227240383625,-0.007001194171607494,-0.021869618445634842,-0.029994752258062363,0.0004924452514387667,-0.0014553249347954988,0.020869551226496696,-0.015627210959792137,0.010736007243394852,0.0014348067343235016,-0.019201314076781273,-0.02600960247218609,-0.02179749868810177,0.021507732570171356,0.008783946745097637,-0.033683791756629944,0.021167686209082603,-0.01695755310356617,0.015479670837521553,0.02370678260922432,-0.03438536450266838,-0.002650048118084669,-0.013785617426037788,0.023907741531729698,-0.02635197341442108,0.030550641939044,-0.033554427325725555,0.024252906441688538,0.019910871982574463,-0.005127123091369867,-0.026649193838238716,-0.007034259382635355,0.01685485616326332,-0.017579177394509315,0.0347612202167511,-0.012136395089328289,-0.03240938484668732,0.0018580966861918569,0.00026866444386541843,-0.005218782462179661,-0.013881971128284931,0.033720992505550385,0.011837724596261978,0.00156944349873811,0.023565396666526794,0.013062328100204468,-0.01134294643998146,-0.00750437006354332,0.008260310627520084,0.031248651444911957,-0.0009156781015917659,-0.005621494259685278,-0.010836634784936905,-0.027525220066308975,-0.02808503247797489,-0.035366240888834,0.018983984366059303,-0.011586466804146767,-0.007646284997463226,-0.02448424883186817,0.025340139865875244,0.02971995435655117,-0.02786499820649624,-0.031436655670404434,0.012274208478629589,0.02458823285996914,0.028882194310426712,0.008586111478507519,-0.026213515549898148,0.025527771562337875,-0.022753803059458733,-0.014524602331221104,0.025706550106406212,0.018845388665795326,0.02929375320672989,-0.03077353909611702,0.00993143767118454,-0.013639451935887337,0.03547654300928116,-0.008844271302223206,-0.024365495890378952,-0.0036731238942593336,-0.0008784133824519813,-0.025232095271348953,-0.016330033540725708,0.005614679306745529,0.033954787999391556,0.029126567766070366,0.016207506880164146,-0.022352570667862892,0.012584732845425606,-0.02317465841770172,0.0005377055495046079,-0.02401578798890114,0.02372071146965027,0.034668661653995514,-0.0355088897049427,-0.004091320559382439,-0.030453652143478394,-0.005235554650425911,-0.02967928536236286,-0.01868887059390545,0.025726154446601868,0.0157852191478014,-0.009728881530463696,-0.027929022908210754,0.0026696508284658194,0.021718386560678482,0.012355243787169456,-0.0009181348141282797,-0.0242613535374403,-0.03441876545548439,-0.01989443600177765,0.025280315428972244,-0.01773228496313095,-0.018516531214118004,0.01808316446840763,0.005616643000394106,-0.02667904831469059,0.013571381568908691,0.033903419971466064,0.02859555371105671,-0.027106856927275658,0.012226233258843422,-0.002271279925480485,0.004316681530326605,0.004143024794757366,-0.029234331101179123,-0.018152950331568718,0.01991484872996807,0.0009946078062057495,0.006219675298780203,0.034794218838214874,0.01346072368323803,-0.0341656394302845,0.014886942692101002,-0.0024433701764792204,-0.0021340178791433573,-0.017500991001725197,0.019448108971118927,-0.014607282355427742,-0.011462529189884663,-0.0029456005431711674,-0.0008240918396040797,0.015345566906034946,-0.028343917801976204,-0.01707029715180397,0.011869399808347225,0.010645255446434021,-0.0007751197554171085,0.016398193314671516,0.0021457772236317396,0.0064598978497087955,-0.013955735601484776,0.003790666814893484,0.00038711674278602004,-0.035639964044094086,-0.01990039274096489,-0.01052133459597826,-0.005572574678808451,-0.02293727919459343,-0.017436165362596512,0.0254698283970356,0.02197125181555748,0.016067273914813995,-0.030320677906274796,0.02712375298142433,0.02521868608891964,-0.021371591836214066,-0.017942385748028755,0.03072189725935459,0.014396538026630878,0.002282705856487155,-0.01763654127717018,0.004789344966411591,-0.006792097352445126,-0.013269875198602676,-0.0137490788474679,-0.0109565956518054,0.0026556982193142176,-0.027225201949477196,0.016675692051649094,0.022514186799526215,0.0022339161951094866,-0.02792968414723873,0.017159665003418922,0.01896837167441845,0.025533199310302734,0.007677792571485043,0.02015463449060917,-0.006446853280067444,0.03175387158989906,-0.018750924617052078,-0.014601079747080803,-0.02249067835509777,0.028077533468604088,-0.017310721799731255,0.004716489464044571,0.017111418768763542,0.0310813058167696,0.011037123389542103,0.011371827684342861,-0.033697791397571564,0.012812035158276558,0.009676877409219742,-0.024849271401762962,0.018976155668497086,-0.015672126784920692,-0.0016794766997918487,-0.016586972400546074,0.0275491401553154,0.03279836103320122,-0.018259255215525627,0.03290325775742531,-0.001417169813066721,0.012567552737891674,0.02552344836294651,-0.02613227441906929,-0.0077768536284565926,-0.009158419445157051,0.032123349606990814,-0.016965029761195183,0.029053740203380585,-0.03233456239104271,-0.03319168463349342,0.019099971279501915,-0.0075338114984333515,-0.002075313590466976,0.008841129951179028,0.025981547310948372,0.032839566469192505,-0.026974791660904884,-0.02742134779691696,-0.0317109078168869,-0.020957088097929955,0.034129638224840164,-0.021695461124181747,0.008697806857526302,-0.017770331352949142,-0.0018953124526888132,-0.014147689566016197,0.010493253357708454,0.030183350667357445,-0.008323909714818,0.020360684022307396,0.008484403602778912,-0.011559744365513325,0.027248334139585495,-0.030229784548282623,0.0016133749159052968,-0.019493717700242996,-0.015959231182932854,0.012266089208424091,0.025000276044011116,0.026739206165075302,0.02811753936111927,0.03401617705821991,0.016369648277759552,-0.0213868860155344,-0.02676234394311905,0.0019878996536135674,0.008348444476723671,0.0023488663136959076,0.03254259377717972,0.02665354125201702,-0.019979892298579216,0.0012747282162308693,0.013904069550335407,0.016865402460098267,0.00303414068184793,-0.009968462400138378,0.0292807687073946,0.014992273412644863,0.035289790481328964,-0.009960001334547997,0.018008017912507057,-0.0275072380900383,-0.0346033088862896,-0.021854765713214874,-0.024414125829935074,-0.009864704683423042,0.012341155670583248,0.002924545668065548,-0.02123270556330681,-0.0012026844779029489,0.018616124987602234,0.027958830818533897,0.026637114584445953,-0.018853098154067993,-0.005759990308433771,0.01733255572617054,0.0277811698615551,0.006282316520810127,0.010967972688376904,0.013825704343616962,-0.02374749444425106,-0.011943004094064236,-0.014571968466043472,-0.03534358739852905,0.035244252532720566,0.007812961004674435,0.03274572640657425,0.03299632668495178,-0.02663399837911129,0.009397602640092373,0.005800946615636349,-0.0025952502619475126,0.004684445448219776,0.002572412136942148,-0.014037559740245342,0.03237238526344299,-0.033912356942892075,0.029367979615926743,0.0039590103551745415,0.021771468222141266,-0.029694506898522377,-0.03083333559334278,-0.03488076105713844,0.009482098743319511,0.02014382742345333,0.028542160987854004,-0.005572519730776548,0.012106896378099918,0.0005572877707891166,0.008409474976360798,-0.005285469815135002,-0.01636471226811409,0.03214198350906372,-0.0063966307789087296,-0.012329005636274815,-0.006973622366786003,0.0186053067445755,0.03489234298467636,0.023274745792150497,0.03263901174068451,6.320518878055736e-05,-0.035068389028310776,-0.0014958623796701431,-0.03380677103996277,0.031408656388521194,-0.0017569808987900615,0.03229463845491409,0.011175010353326797,0.03435855358839035,-0.02562396228313446,0.020244812592864037,0.02549825608730316,-0.02162187732756138,0.018698405474424362,-0.02708505094051361,0.0035126220900565386,-0.00674354238435626,-0.014377880841493607,0.025126401335000992,0.027097029611468315,0.011357837356626987,-0.006406466942280531,-0.025694848969578743,-0.014582289382815361,0.030497033149003983,-0.0033633187413215637,-0.001897828304208815,0.02211066521704197,-0.02013278938829899,0.010341638699173927,0.031284186989068985,-0.0015594675205647945,0.020443933084607124,-0.011255990713834763,-0.00023496402718592435,0.02787645533680916,-0.02022518776357174,0.03504873067140579,-0.029361778870224953,0.02062317356467247,0.024310065433382988,0.012689722701907158,0.03303958848118782,-0.001475683762691915,0.015565534122288227,0.012936650775372982,-0.02461784891784191,0.02874624729156494,0.018435226753354073,0.030674191191792488,0.008687928318977356,-0.03382004797458649,0.00947240088135004,-0.01140886452049017,0.006809987593442202,0.010097301565110683,-0.011044507846236229,0.01491986121982336,-0.02392161823809147,0.014300010167062283,0.007927578873932362,-0.023721495643258095,0.02706078253686428,-0.009503492154181004,0.03293229639530182,-0.011921391822397709,-0.015438437461853027,-0.01427991408854723,0.028788462281227112,-0.01995747908949852,-0.03486459702253342,0.011930218897759914,0.019234882667660713,0.006798265036195517,0.022355003282427788,0.005354119930416346,-0.008515640161931515,-0.02739616110920906,0.0005716565647162497,0.01917349360883236,-0.03394418954849243,0.020339863374829292,0.009449921548366547,-0.02117764577269554,-0.022599583491683006,0.015413953922688961,0.02228377014398575,-0.03063868172466755,0.03521984815597534,0.018054626882076263,0.004622310400009155,-0.01463411282747984,-0.010322258807718754,-0.006303973961621523,-0.009649409912526608,-0.0005555826355703175,0.012607010081410408,0.029977481812238693,0.02094079926609993,-0.0025574108585715294,0.014750662259757519,0.03139979764819145,0.03005969151854515,0.006756271701306105,0.032327037304639816,0.014108150266110897,0.021106425672769547,0.005320203024893999,0.004721370991319418,0.020865418016910553,0.034708745777606964,-0.032738592475652695,-0.003846838604658842,-0.03314797952771187,0.029334448277950287,0.00474948575720191,-0.030177799984812737,-0.013975674286484718,-0.013931306079030037,0.03450187295675278,-0.009078392758965492,0.007476356811821461,-0.028705406934022903,-0.004437364637851715,-0.010213642381131649,-0.011623343452811241,-0.030645975843071938,0.03475090488791466,-0.015294724144041538,0.018596624955534935,-0.0010780716547742486,-0.034601371735334396,-0.02732866071164608,-0.019382599741220474,-0.016496239230036736,0.02497410587966442,-0.017946744337677956,0.010724817402660847,0.021138522773981094,-0.01679893210530281,-0.009657744318246841,0.003218356752768159,0.0286293663084507,0.013353046961128712,-0.031767524778842926,0.03483119606971741,-0.03326155245304108,0.023399120196700096,-0.02756320871412754,0.02583286724984646,-0.016363827511668205,-0.014971447177231312,-0.02110494300723076,0.03230886161327362,-0.034530118107795715,0.019881391897797585,0.00977884978055954,0.02644146792590618,0.001274451264180243,-0.0014524484286084771,-0.03474058210849762,0.010525276884436607,0.005748599302023649,0.00796414352953434,-0.0141815897077322,0.025592679157853127,0.0004749007348436862,0.004845219198614359,0.025408808141946793,-0.013041200116276741,0.0041122473776340485,-0.016560055315494537,-0.010258938185870647,0.021270528435707092,0.012990360148251057,-0.03266102075576782,-0.0005225613131187856,-0.03133770078420639,-0.021133849397301674,0.00716629670932889,-0.004091737791895866,-0.017396442592144012,0.0014698392478749156,-0.008400249294936657,-0.017786774784326553,0.006844458170235157,0.02752649039030075,-0.018057912588119507,-0.01519007608294487,-0.021530471742153168,-0.021411672234535217,-0.00699992012232542,0.03190793842077255,-0.021627968177199364,-0.0315915048122406,-0.002976602641865611,0.028322096914052963,-0.02902373857796192,0.006175165995955467,0.03436887264251709,-0.021726496517658234,0.014552667737007141,-0.015671782195568085,0.02665647678077221,0.012580632232129574,0.014202740974724293,0.01078101061284542,-0.03521839156746864,0.02825571410357952,0.033050891011953354,0.01962914876639843,0.012271653860807419,0.0016109858406707644,0.017245760187506676,-0.02875211462378502,-0.034555163234472275,0.03430531546473503,-0.002413836307823658,-0.02168249525129795,0.018657179549336433,-0.035074442625045776,-0.03131214529275894,0.0035315724089741707,0.031217902898788452,0.02639818750321865,0.028986794874072075,-0.022322408854961395,0.032868120819330215,-0.029063144698739052,-0.026296881958842278,0.012654315680265427,0.03226921334862709,0.0017631355440244079,-0.003726483788341284,-0.017358310520648956,0.03438305854797363,0.004610081668943167,-0.029998673126101494,-0.004614157602190971,0.002058977959677577,-0.03552887588739395,-0.0030446380842477083,0.01466135773807764,0.0011449914891272783,-0.015388921834528446,0.014257371425628662,0.028871186077594757,0.03383173793554306,-0.031217658892273903,0.003503176150843501,0.003168020397424698,0.024328269064426422,0.023631900548934937,-0.00037077421438880265,-0.015666916966438293,0.02090512588620186,0.0123293437063694,-0.008964956738054752,-0.03179851546883583,0.03186710551381111,-0.01070406474173069,0.002223195042461157,-0.005238761659711599,0.0021489174105226994,-0.029894743114709854,-0.011414346285164356,-0.03386431559920311,-0.02364504523575306,0.01023861113935709,0.0315532311797142,0.012272603809833527,-0.0013920471537858248,0.028204146772623062,-0.000979154952801764,-0.026552531868219376,-0.020535513758659363,0.006347416900098324,-0.004045374691486359,-0.022213591262698174,0.014000358991324902,-0.010243621654808521,-0.000466149824205786,0.023455996066331863,0.00970233604311943,0.026028884574770927,-0.011234423145651817,0.030004728585481644,-0.022256124764680862,-0.014075109735131264,-0.024679986760020256,-0.020901858806610107,-0.010928533039987087,-0.01894218847155571,-0.005827419459819794,0.02213621884584427,-0.03314823657274246,-0.007199708838015795,-0.03535019978880882,0.02832590416073799,0.009731591679155827,0.005328134633600712,0.022837622091174126,0.03376566991209984,0.03032231517136097,-0.0015191622078418732,0.022684834897518158,-0.002136938739567995,-0.002345418091863394,0.01560772955417633,0.018213743343949318,0.0257123876363039,-0.002244615461677313,0.010605830699205399,0.004707830026745796,0.016960110515356064,0.0024709345307201147,0.007088751532137394,-0.026006225496530533,-0.0024387259036302567,-0.007463403977453709,-0.025829492136836052,-0.007399980444461107,0.008089721202850342,-0.026174122467637062,0.02646600641310215,0.003222278319299221,0.011121763847768307,-0.0031592664308845997,0.010998738929629326,-0.026716941967606544,-0.01951734907925129,-0.027054188773036003,0.013338363729417324,-0.0179702527821064,-0.003186357207596302,-0.0064008161425590515,0.0355057418346405,0.026784971356391907,-0.014999337494373322,0.028747744858264923,0.01026095263659954,0.009305753745138645,-0.011529386974871159,0.027958247810602188,0.018020443618297577,-0.027171369642019272,0.009567154571413994,-0.029833471402525902,0.023285597562789917,0.0317576602101326,-0.028303302824497223,-0.025396568700671196,-0.015489168465137482,-0.008010009303689003,-0.019477803260087967,0.02304660528898239,-0.006173021625727415,0.03329063206911087,-0.030747713521122932,0.03478655964136124,0.00926661305129528,-0.010641894303262234,-0.023593487218022346,-0.0031868289224803448,-0.0029965583235025406,0.014609833247959614,0.029869545251131058,-0.02669883519411087,-0.0033342866227030754,0.011748414486646652,0.005006671417504549,0.0072057307697832584,-0.0277304258197546,0.034636735916137695,-0.0009078505681827664,-0.02806951105594635,-0.027473554015159607,0.007343500852584839,-0.031734731048345566,0.007841486483812332,-0.028995847329497337,0.026936493813991547,0.016389289870858192,0.019940011203289032,-0.0106212068349123,0.014414982870221138,0.004023546352982521,-0.0026384510565549135,0.013228449039161205,-0.031394850462675095,-0.004157772287726402,-0.018451577052474022,-0.029465893283486366,-0.017723772674798965,-0.03568271920084953,0.035222869366407394,0.003698286134749651,0.01823779009282589,-0.031161949038505554,-0.025274978950619698,0.016681889072060585,0.02317761816084385,0.02288736216723919,-0.002894720295444131,-0.027480993419885635,0.01424158364534378,-0.003018700983375311,-0.007773880381137133,-0.02617288939654827,-0.029241977259516716,0.01603875681757927,0.020586296916007996,0.021657440811395645,0.03171736001968384,-0.017023861408233643,-0.029197663068771362,0.01852385886013508,-0.010895737446844578,-0.035180896520614624,-0.014981230720877647,0.010012079030275345,-0.020290741696953773,-0.006987853907048702,-0.03492002189159393,-0.034026820212602615,0.017520563676953316,0.006842378992587328,0.012297527864575386,-0.016759146004915237,-0.01888836733996868,0.018840666860342026,-0.01231763418763876,0.027267398312687874,-0.02604849450290203,-0.034689757972955704,-0.0012446728069335222,0.027845118194818497,0.013790339231491089,-0.023944934830069542,-0.026834167540073395,0.018260132521390915,0.004460594616830349,0.0025731862988322973,-0.033112477511167526,0.005997432395815849,-0.01611396111547947,0.02536003105342388,-0.022805871441960335,-0.027768438681960106,-0.02378018945455551,0.025788702070713043,0.015562649816274643,0.005370020400732756,-0.007942551746964455,-0.02739766426384449,0.004985577892512083,-0.009333688765764236,-0.02830650843679905,-0.017683228477835655,-0.028576740995049477,-0.029678454622626305,-0.011103837750852108,0.034107059240341187,0.003983926028013229,0.017310937866568565,0.023278672248125076,-0.007307974621653557,0.02323598973453045,0.00040852598613128066,0.02941162697970867,0.018897704780101776,0.02328014187514782,0.012875299900770187,0.02390202321112156,0.025711234658956528,0.006063881795853376,0.022115634754300117,0.02647159993648529,0.019502561539411545,0.02932802587747574,-0.020945686846971512,0.007827755063772202,-0.03552703186869621,0.0026233536191284657,0.02268020249903202,0.021175241097807884,-0.005734628066420555,-0.008405261673033237,0.025240428745746613,-0.005641846917569637,0.01183147169649601,0.02150890789926052,-0.019291585311293602,0.008868930861353874,-0.02020025998353958,-0.0033188171219080687,0.001712695462629199,0.03229972720146179,0.03351253271102905,-0.01764744520187378,0.014610442332923412,0.022212697193026543,-0.02229827642440796,0.018324073404073715,-0.0027755016926676035,-0.0007299126591533422,0.010940642096102238,0.01664026826620102,-0.01805577427148819,-0.01779179461300373,0.033054906874895096,0.03088049218058586,0.015640944242477417,-0.003816874697804451,-0.0072731575928628445,0.0024400760885328054,-0.03538304567337036,0.01329613197594881,0.011484398506581783,0.029085401445627213,-0.025973523035645485,-0.023475151509046555,-0.025357665494084358,0.023241860792040825,0.0013939145719632506,0.0349695049226284,-0.020672380924224854,0.008459711447358131,0.016603587195277214,-0.008360791951417923,-0.031324148178100586,-0.00689532607793808,-0.019957128912210464,-0.0012329015880823135,-0.011695927940309048,0.017606699839234352,0.02295929752290249,0.02522706799209118,0.017354333773255348,0.00438107131049037,0.02372756041586399,0.015400541946291924,0.008359411731362343,0.033507611602544785,-0.032812830060720444,-0.016121553257107735,0.021040478721261024,-0.027365518733859062,-0.022906368598341942,0.024004481732845306,-0.011451464146375656,-0.013761898502707481,-0.003662124276161194,-0.007556112948805094,0.03327564150094986,-0.023602766916155815,-0.025037216022610664,-0.03440040349960327,0.022288406267762184,-0.02541573904454708,-0.0338481180369854,0.01149841770529747,-0.027169009670615196,-0.025844262912869453,-0.00369691732339561,-0.005552494898438454,0.008658160455524921,-0.016195662319660187,0.033403415232896805,-0.019285796210169792,-0.007585290353745222,-0.02918318845331669,-0.023750027641654015,-0.033450473099946976,0.011186132207512856,-0.0032880150247365236,0.021414125338196754,-0.007775697857141495,-0.03521113842725754,0.0216623954474926,-0.033823441714048386,-0.013086183927953243,0.021334558725357056,0.007029352709650993,0.02571682445704937,0.0170750692486763,-0.03208271414041519,0.009733244776725769,-0.013204029761254787,0.02936694398522377,-0.003167226677760482,0.027445392683148384,-0.017640050500631332,0.0019495765445753932,-0.03259894996881485,-0.021267827600240707,0.033830273896455765,-0.03387635201215744,0.030218297615647316,0.02499367855489254,-0.01794361136853695,-0.03566402569413185,0.016924871131777763,0.026125038042664528,-0.022109676152467728,0.033974844962358475,0.0313117615878582,0.019336747005581856,-0.01598482020199299,0.025926504284143448,0.011602174490690231,0.027443647384643555,0.0006680605583824217,0.025317847728729248,0.01022865530103445,-0.02801019512116909,-0.019144536927342415,0.00023954868083819747,-0.01432615052908659,0.004616671707481146,-0.025861747562885284,-0.010355220176279545,0.017910847440361977,0.016954274848103523,0.008953736163675785,-0.016773073002696037,-0.031469229608774185,-0.004447458777576685,0.026155725121498108,0.023087777197360992,0.025776615366339684,-0.014554397203028202,0.031047552824020386,-0.006789717823266983,-0.03490852192044258,-0.011643894016742706,0.015098090283572674,-0.025792304426431656,0.02868967317044735,0.019060896709561348,0.023723669350147247,0.019308198243379593,-0.001505522639490664,0.022631892934441566,-0.033974457532167435,-0.0057426514104008675,0.010147872380912304,0.03440312296152115,-0.034742631018161774,-0.011989902704954147,0.0043269055895507336,0.003321718191727996,-0.00344247929751873,-0.009038913995027542,0.03432139754295349,0.02843240089714527,-0.01762445457279682,-0.029871176928281784,0.021784678101539612,0.022308889776468277,-0.02114604040980339,0.011184288188815117,-0.00898317713290453,-0.03009185753762722,0.028445763513445854,-0.03440883010625839,0.010802384465932846,0.01757020503282547,-0.02225828729569912,0.0284452922642231,0.019913997501134872,0.019595732912421227,-0.01895410753786564,-0.02606172300875187,0.03541434556245804,0.021869776770472527,-0.009121939539909363,-0.026844488456845284,0.025294551625847816,-0.029837362468242645,-0.02381163276731968,-0.026960104703903198,-0.02147570811212063,-0.0026169992052018642,-0.02371744066476822,0.028958138078451157,-0.006190044339746237,-0.007115112151950598,-0.018207957968115807,0.0011864278931170702,0.0010460695484653115,0.03328350558876991,0.024204686284065247,0.019439639523625374,-0.012392068281769753,0.02034335769712925,0.005783929023891687,-0.0020785559900105,-0.015347957611083984,0.022206297144293785,0.015499435365200043,0.008485125377774239,-0.032748933881521225,0.010376705788075924,0.010793088003993034,-0.025859203189611435,-0.01799013651907444,0.02799135260283947,0.03535475209355354,0.0020042939577251673,-0.02788463793694973,-0.003666706383228302,0.02598845586180687,0.007664216682314873,0.000851560675073415,0.03178398683667183,-0.01881108433008194,-0.033523015677928925,-0.029654955491423607,-0.03330690413713455,-0.035217832773923874,-0.024014927446842194,0.006140546407550573,0.00827135518193245,-0.006692871451377869,-0.02474166266620159,-0.0327848345041275,0.03466358408331871,-0.02082769013941288,-0.003874989924952388,-0.033824097365140915,0.00036122958408668637,-0.0064701843075454235,-0.026826992630958557,-0.027342449873685837,0.032726652920246124,0.03475450351834297,0.02783530205488205,-0.026344580575823784,0.00680658919736743,-0.01594400964677334,0.011100078001618385,-0.034647468477487564,-0.006180286407470703,-0.02167072519659996,-0.0007270877831615508,0.0026209901552647352,0.023900911211967468,-0.005270984023809433,0.030910003930330276,-0.030220340937376022,-0.005674291867762804,0.029889728873968124,-0.025511091575026512,-0.014406329020857811,-0.005684618838131428,0.001419957377947867,-0.013278866186738014,0.02059531956911087,-0.003077451139688492,-0.01792186126112938,-0.007897967472672462,0.019471867009997368,-0.01725012995302677,-0.009713673032820225,-0.012246270664036274,-0.022905565798282623,0.02738434262573719,-0.01811183989048004,-0.02873940020799637,0.007698859088122845,0.0354410782456398,0.009786524809896946,0.019668228924274445,0.02014145627617836,-0.02070419117808342,-0.022584473714232445,0.005039780400693417,-0.02010619081556797,0.030376484617590904,0.007426250260323286,0.003995929379016161,-0.00499693164601922,-0.019056286662817,0.01086368691176176,0.034180425107479095,0.007847159169614315,0.03400895372033119,-0.0034035691060125828,-0.005564380902796984,0.0007163786212913692,-0.012749815359711647,0.0096055269241333,0.009120630100369453,-0.009411433711647987,0.013297317549586296,-0.0035037952475249767,-0.0008720994810573757,-0.016098737716674805,-0.016935162246227264,0.010618503205478191,-0.03175622969865799,0.03024468757212162,-0.01391573902219534,0.020501838997006416,-0.00966823659837246,-0.029744749888777733,0.011464635841548443,0.018443914130330086,0.02621014602482319,-0.03352968394756317,0.004700294230133295,-0.027335653081536293,-0.013306203298270702,-0.029137901961803436,-0.01692856103181839,0.021086089313030243,-0.029819313436746597,0.03382381796836853,0.006774890702217817,0.021938171237707138,-0.01266354601830244,0.020591983571648598,-0.012463830411434174,0.000880876206792891,0.008022180758416653,-0.021965639665722847,0.020964687690138817,-0.017162496224045753,-0.0015425655292347074,-0.0028630688320845366,0.03161931410431862,-0.009702189825475216,-0.0006951074465177953,-0.005848016124218702,0.0209979135543108,-0.02867235243320465,0.0013072789879515767,0.014543455094099045,0.015229500830173492,-0.02048383466899395,-0.01577875018119812,0.0003885285113938153,-0.032708458602428436,0.024706363677978516,0.00927190575748682,0.02139570377767086,-0.012237653136253357,0.027211839333176613,0.012191825546324253,-0.002475883811712265,0.03274077922105789,0.02173256315290928,-0.022899018600583076,0.014843108132481575,-0.021132374182343483,0.009325668215751648,-0.018134264275431633,0.022521741688251495,-0.03370491787791252,0.011256372556090355,-0.03193897753953934,-0.029670456424355507,0.003641474526375532,-0.017194999381899834,-0.029119890183210373,0.0043019321747124195,0.0036124878097325563,0.025108151137828827,0.029092546552419662,0.015960320830345154,-0.022419918328523636,0.03180411830544472,0.02054901421070099,0.00782697182148695,0.016682066023349762,0.024084893986582756,0.033097948879003525,-0.01762748509645462,-0.009547796100378036,0.027422865852713585,-0.022763613611459732,0.03236151114106178,-0.03042076900601387,0.025994258001446724,0.0019406722858548164,0.006390288472175598,-0.007538750767707825,0.023622402921319008,0.017912469804286957,-0.01762455143034458,-0.007911894470453262,0.020125145092606544,-0.0007778092985972762,-0.03172445669770241,-0.02312939241528511,0.03550122305750847,-0.007490276824682951,0.014482305385172367,-0.02717485837638378,-0.029886741191148758,0.02895239181816578,0.03357622027397156,0.03148447722196579,-0.02915014699101448,0.0035949749872088432,-0.005972855258733034,0.00989222526550293,0.01476317923516035,0.027226367965340614,-0.011535366997122765,0.03522584214806557,-0.005258273798972368,-0.014432903379201889,0.017274579033255577,-0.016200250014662743,0.011521849781274796,0.007399779744446278,0.0011995987733826041,-0.017820583656430244,-0.019395718351006508,0.009113912470638752,-0.017390796914696693,0.011624653823673725,-0.008698279969394207,0.008021857589483261,0.02511918917298317,0.01123157236725092,-0.02051912620663643,0.01088234968483448,-0.023481599986553192,-0.00806336384266615,0.02314504235982895,0.007917174138128757,0.03247943893074989,0.019321784377098083,0.034550994634628296,0.030125664547085762,-0.012635311111807823,0.021530048921704292,0.024296797811985016,0.03329799696803093,-0.032537683844566345,0.03176198527216911,-0.0035104218404740095,0.01717633567750454,-0.01040339283645153,0.006641842424869537,-0.030623070895671844,0.003504336578771472,0.028327176347374916,0.008945710957050323,0.0218223687261343,0.023116357624530792,-0.03192941099405289,0.005070249084383249,-0.0176454558968544,-0.03402147814631462,0.01109036523848772,0.018075760453939438,0.0004907756811007857,-0.02772114984691143,0.01144139189273119,0.015457653440535069,0.013059423305094242,0.022736089304089546,-0.026932479813694954,0.03280296176671982,0.0079420180991292,-0.021064868196845055,-0.010157231241464615,0.018860725685954094,-0.029498497024178505,-0.006346502806991339,-0.010666832327842712,0.009145759046077728,0.0031283069401979446,0.006006631534546614,0.010348325595259666,-0.03294725343585014,-0.03198489174246788,0.02485896274447441,-7.11079746906762e-06,-0.03199496492743492,0.023729534819722176,-0.023216720670461655,-0.013892159797251225,0.026633484289050102,-0.0037152988370507956,-0.03390694782137871,-0.015229577198624611,0.03285481780767441,0.02137197181582451,-0.027692321687936783,-0.0324447937309742,-0.023758362978696823,-0.012669508345425129,-0.006651680450886488,-0.007964025251567364,-0.015585838817059994,0.017514457926154137,-0.0022316400427371264,0.013569546863436699,0.020519116893410683,0.023796185851097107,0.021623656153678894,0.03171570599079132,-0.031429652124643326,0.023218614980578423,-0.01901855692267418,0.006414313334971666,-0.016198724508285522,0.012815386056900024,-0.016753120347857475,0.010151363909244537,-0.026316985487937927,0.023156356066465378,0.014668292365968227,-0.022251972928643227,-0.02025117352604866,0.01403938326984644,-0.003145489376038313,0.02390219457447529,0.005199501756578684,0.01797354966402054,-0.002878080355003476,-0.022530244663357735,0.01935768499970436,-0.009492647834122181,-0.001200657687149942,-0.01293093990534544,-0.015697795897722244,0.013286229223012924,0.0327799916267395,0.004279566928744316,-0.0010065218666568398,-0.03424357250332832,-0.03259706124663353,0.029029134660959244,0.023319128900766373,-0.01877593621611595,-0.016642600297927856,0.02096872590482235,0.010945036076009274,-0.02248041145503521,-0.03179781511425972,-0.032630693167448044,0.03239419311285019,0.015644634142518044,-0.008622922003269196,0.003830268746241927,-0.019615916535258293,0.03157299384474754,-0.014300484210252762,0.016292573884129524,0.012892086990177631,0.01805203966796398,0.011557651683688164,0.015042451210319996,0.023148436099290848,-0.019745098426938057,-0.0248571764677763,-0.004737162496894598,0.0356762558221817,0.010234910063445568,-0.02131880261003971,0.019635029137134552,0.03034983016550541,0.023144328966736794,-0.024241680279374123,0.024850118905305862,0.003737229388207197,0.009638642892241478,0.003003990976139903,-0.033836882561445236,0.012830661609768867,-0.013122794218361378,0.026423050090670586,0.024298090487718582,0.022699838504195213,-0.020693134516477585,-0.03235379233956337,0.0023696725256741047,-0.01168084517121315,-0.019179021939635277,0.005095164757221937,0.024908263236284256,-0.028658075258135796,0.02851509116590023,0.034077730029821396,0.03115091845393181,-0.014816323295235634,0.029614407569169998,0.022526487708091736,0.024571413174271584,-0.006617486011236906,0.025232162326574326,0.004860688932240009,0.021072307601571083,-0.011156768538057804,0.005258495453745127,-0.03536592796444893,-0.017564650624990463,0.012090098112821579,0.02723439410328865,-0.011269882321357727,-0.018723929300904274,-0.0032063890248537064,-0.003769960952922702,0.009955125860869884,0.020678870379924774,-0.0041246237233281136,0.015495486557483673,0.010866217315196991,-0.011728749610483646,-0.003319139126688242,0.019306248053908348,0.028823332861065865,0.013760433532297611,-0.020340656861662865,0.019281331449747086,-0.03465406596660614,-0.007100343704223633,-0.0325724259018898,0.03261213377118111,-0.02563543990254402,-0.02247215434908867,0.007541003171354532,-0.03151584044098854,0.025466740131378174,-0.01072074007242918,-0.002695109462365508,0.02007194608449936,0.02141801454126835,-0.0247843898832798,0.017877226695418358,-0.015257476828992367,0.010657818987965584,0.033684272319078445,-0.0195291917771101,0.0015794450882822275,0.02053344063460827,-0.00046989807742647827,-0.013921230100095272,0.023767812177538872,-0.030807359144091606,-0.02693677507340908,-0.035641808062791824,-0.0036644781939685345,-0.010836628265678883,-0.014711950905621052,0.02797955647110939,-0.013686503283679485,-0.024628279730677605,0.02601119503378868,0.026737436652183533,0.02634395845234394,0.03153132647275925,-0.03357798606157303,-0.032181285321712494,-0.028772035613656044,-0.02412981539964676,-0.0008680881001055241,-0.0069691273383796215,0.014194187708199024,-0.026763761416077614,-0.014970199204981327,0.034922175109386444,0.02982305735349655,-0.01004137471318245,0.03189903870224953,0.025925539433956146,0.010555395856499672,-0.0215129591524601,0.01846197247505188,0.013994423672556877,0.03480220586061478,-0.01893524080514908,-0.011481658555567265,0.015802407637238503,0.013809612952172756,-0.024379326030611992,-0.020899763330817223,0.006152402609586716,-0.018113810569047928,0.01604396104812622,0.011412120424211025,0.005464838817715645,0.018183773383498192,-0.0005177017883397639,0.006675942335277796,0.024388069286942482,-0.003165916306897998,-0.02613956853747368,0.02062828093767166,0.03327100723981857,0.008255911991000175,-0.011270829476416111,0.004571466241031885,0.013172266073524952,